%YAML:1.0
---
opencv_ml_svm:
   format: 3
   svmType: C_SVC
   kernel:
      type: LINEAR
   C: 2.6699999999999999e+00
   term_criteria: { epsilon:1.1920928955078125e-07, iterations:1000 }
   var_count: 64
   class_count: 10
   class_labels: !!opencv-matrix
      rows: 10
      cols: 1
      dt: i
      data: [ 0, 1, 2, 3, 4, 5, 6, 7, 8, 9 ]
   sv_total: 45
   support_vectors:
      - [ -6.93460461e-05, 1.33579335e-04, 3.00328029e-05,
          6.65167900e-05, -2.21838091e-05, 0., 0., 4.60440560e-07,
          9.33047340e-05, 1.22206577e-04, -1.17844116e-04,
          -1.93112719e-05, -1.91858653e-05, -3.48703761e-05,
          1.98522739e-05, 3.56577220e-05, -3.63752406e-05,
          -1.19434051e-04, -1.13385890e-04, -8.32571459e-05,
          3.71321985e-05, 6.08593618e-05, 7.66898884e-05, 2.54409941e-04,
          2.28195087e-04, 5.14542953e-05, -1.07446416e-04,
          -3.66694439e-05, 6.45379696e-05, 6.14308738e-05,
          -2.74469767e-05, 2.82432084e-05, -5.01812865e-05,
          -2.92024597e-05, -4.41316552e-05, -1.09056702e-04,
          4.31599292e-05, 7.31007531e-05, 6.88953078e-05, 6.02690307e-05,
          -7.08063017e-05, -3.09826428e-05, 2.56410258e-05,
          9.90912940e-06, 3.83529987e-05, 1.19549499e-04, 3.50322152e-05,
          2.63548591e-05, 2.53760401e-04, 1.78583883e-04, 1.03812847e-04,
          8.11159916e-05, -4.22123339e-05, -7.41067852e-05,
          4.12223335e-06, -7.81369909e-06, -9.25510758e-05,
          -1.01050042e-04, 9.83188220e-05, 9.93673621e-06,
          1.47264709e-05, -1.91432482e-05, 2.62351987e-05,
          1.49369753e-05 ]
      - [ 1.16099589e-04, 5.67089519e-05, 1.39995855e-05,
          -1.81915311e-05, -2.10510530e-06, -5.93341465e-05,
          1.74760298e-05, 4.08319975e-05, 2.30715523e-05, 9.44030544e-05,
          2.59619210e-05, -1.47123546e-05, -5.66697054e-05,
          -1.42826553e-04, -4.70743580e-05, 2.07489138e-05,
          -1.02397353e-05, -1.88730919e-04, -1.05908359e-04,
          -5.33306848e-05, -8.99069855e-05, -1.33429632e-08,
          8.45132745e-05, 8.43641246e-05, 1.05556319e-04,
          -4.10146713e-05, -7.93011495e-05, -6.81575693e-05,
          -4.25586913e-05, 2.73786900e-05, 4.35218999e-06,
          6.58642603e-05, -4.69266088e-05, -3.48473877e-05,
          1.84886085e-05, 2.62887552e-05, 4.98326008e-05, 9.51274778e-05,
          -6.08782211e-05, 4.64367622e-06, -4.96848697e-05,
          -1.20530422e-04, -1.11047057e-05, 7.03196565e-05,
          7.37068985e-05, 7.59592222e-05, 6.09445524e-05,
          -1.09883113e-04, 1.39311916e-04, 1.26593935e-04,
          8.95991689e-05, -2.64906830e-05, -1.83774864e-05,
          -1.28479660e-04, -5.13659106e-05, -8.72974852e-06,
          1.35580674e-04, 2.48688066e-05, -1.34139509e-05,
          2.28847421e-05, -6.45399923e-05, -2.31936269e-06,
          -1.19219590e-06, 4.43132267e-05 ]
      - [ 5.94270678e-05, 4.32796442e-05, -4.07838343e-05,
          -2.10005528e-05, 2.51050324e-06, -1.44071737e-05,
          2.36535143e-07, -2.00206296e-06, 7.90466802e-05,
          9.03660111e-05, 8.21646495e-07, -3.60531485e-05,
          -6.61248705e-05, -9.49479290e-05, -6.69482542e-05,
          -3.32978698e-06, 9.43123669e-05, -8.22785296e-05,
          -9.28630616e-05, -7.92547653e-05, -7.11609100e-05,
          2.99467520e-05, 3.42715030e-05, 6.38121128e-05, 1.34247079e-04,
          8.57165287e-05, -4.12534864e-05, -1.12979906e-04,
          -4.94337655e-05, -1.49302596e-05, -1.50862479e-06,
          1.15754054e-04, -1.12731016e-06, -7.37459850e-05,
          -3.43865104e-05, 1.61443641e-05, 4.53267057e-05,
          7.90870399e-05, -2.03778709e-05, -2.09851987e-05,
          -8.58112471e-05, -3.64846674e-05, 1.44085670e-05,
          -2.27492128e-05, 3.94134840e-05, 7.94019434e-05,
          1.20387980e-04, 2.65008221e-05, 6.04046763e-05, 6.56964839e-05,
          3.37147576e-05, 5.80121923e-05, 3.79144403e-05,
          -1.96300061e-05, -6.82445316e-05, -3.01103209e-05,
          1.72024520e-05, 1.85474855e-05, -1.52940174e-05,
          7.67626407e-05, -1.72802920e-05, -4.80844064e-05,
          -2.96524086e-05, 3.33954376e-05 ]
      - [ 3.18748680e-05, 4.63004289e-05, 1.00898333e-05, 8.12278086e-05,
          -3.84825762e-05, -4.08604938e-05, -5.33201273e-05,
          -4.60878218e-05, 5.96194695e-05, 6.24052918e-05,
          3.02891531e-05, 1.12469597e-05, -1.45912895e-06,
          3.04695004e-06, 1.19956094e-05, 6.38646015e-05,
          -7.22724644e-06, -1.11862057e-04, -2.47682510e-05,
          -6.76990676e-05, 3.03538854e-05, 5.74928454e-05,
          1.97982645e-05, 9.35758653e-05, 1.22849902e-04, 3.02108620e-05,
          -8.80113384e-06, -1.23225807e-04, 3.35068705e-07,
          -7.88207399e-05, 1.73774260e-05, 6.24850072e-05,
          -6.77628777e-05, -1.54135967e-04, -4.80686540e-05,
          -7.91026905e-05, -1.42281624e-05, 7.19849850e-05,
          1.35767521e-04, -1.13334281e-05, -1.07266053e-04,
          -4.52237691e-05, 9.15830969e-05, 5.23178969e-05,
          2.96903163e-05, 4.80011004e-05, 1.28151412e-04,
          -1.43232537e-05, 1.14955343e-04, 1.80083764e-04,
          4.93833541e-05, 7.87701574e-05, 1.79683047e-06,
          -5.88231997e-05, -5.17932822e-05, 3.40214865e-05,
          2.79508222e-05, -7.84197910e-05, -5.96982500e-06,
          4.08558626e-05, -1.94460172e-05, -9.48840025e-05,
          -7.46458172e-05, 5.28115088e-05 ]
      - [ -4.69416264e-05, 1.18535627e-05, 5.25046889e-05,
          1.01769117e-04, 3.42148596e-05, -4.04104139e-05,
          -4.68514463e-06, -3.12113043e-05, 3.06434122e-05,
          6.62144666e-05, 3.70748494e-05, -9.21955575e-07,
          -1.30696926e-05, -3.97950025e-05, -5.79936095e-05,
          -1.02511221e-04, 3.10046016e-05, -1.13483053e-04,
          -4.40292752e-05, -6.17799960e-05, -6.92987815e-05,
          7.05194543e-05, 1.64251287e-05, 6.98451331e-05, 1.21970283e-04,
          5.86500501e-05, -4.86086610e-05, -9.34565542e-05,
          -5.02565927e-05, 3.40647202e-05, 7.50425170e-05,
          1.24364204e-04, 3.68159745e-05, 4.02760224e-06, 3.37429310e-06,
          -8.81157321e-05, -9.00919695e-05, -1.51208324e-05,
          5.86778151e-05, 6.59479192e-05, 7.07144545e-06,
          -5.45459625e-05, -8.76186386e-05, -8.31746584e-05,
          -4.70400264e-05, 5.51347293e-05, 1.21792677e-04,
          5.92575198e-05, -9.91186062e-06, 1.17160445e-04,
          7.02601101e-05, 6.72683891e-05, -2.41343805e-05,
          -7.08754378e-05, -1.16843919e-04, -6.78216456e-05,
          3.31678239e-05, -2.74782269e-05, 5.68972828e-05,
          7.92072242e-05, -3.15245125e-05, -6.84365368e-05,
          -1.03277147e-04, -4.10536086e-06 ]
      - [ -1.98013848e-04, -7.50272811e-05, 7.04790000e-05,
          1.59989417e-04, 1.13847702e-04, 2.40773788e-05,
          -1.02468191e-04, -2.14874417e-05, 6.72039750e-05,
          4.60036645e-05, -7.60381736e-05, -5.31699843e-05,
          5.75938247e-05, 4.27663326e-05, 1.58997511e-06, 3.69583831e-05,
          -3.04761652e-05, -5.61487504e-05, -5.21293950e-05,
          7.14224589e-05, -7.59689965e-06, 9.98152173e-05,
          2.89952113e-05, 5.69782933e-05, 5.95513993e-05, 1.34411472e-04,
          5.81248205e-05, -9.66691514e-05, -1.04470619e-05,
          1.37302020e-04, 3.24437715e-05, -4.44704601e-05,
          4.92996405e-05, -1.78438477e-05, -1.35566996e-04,
          -1.40470918e-04, -1.24251295e-04, 1.31465844e-04,
          1.42225501e-04, 1.77237191e-04, 4.02201749e-06,
          -1.70659754e-04, 2.60304241e-05, -1.22305109e-05,
          8.23066075e-05, 1.09953755e-04, 1.17038784e-04, 8.83391840e-05,
          2.13392123e-04, 1.01145437e-04, 5.39624307e-05,
          -2.26672237e-05, 1.06550797e-04, -5.71588207e-05,
          -1.65221063e-05, 8.08582845e-05, 4.30163527e-05,
          -1.51434069e-05, 1.72502751e-05, -1.33764290e-04,
          -1.14440554e-05, -3.78165896e-05, 2.21490427e-05,
          7.88630859e-05 ]
      - [ 1.16018942e-04, 4.62564640e-05, -4.82577343e-06,
          -1.83932170e-05, -8.79983127e-05, -2.33011015e-05,
          -1.47147239e-05, -1.59488718e-06, 8.44038805e-05,
          2.29423404e-05, -3.00615848e-05, -9.33961273e-05,
          -2.74719350e-05, -3.13555902e-05, -1.35161799e-05,
          8.48266864e-05, -1.16950341e-05, -1.32368179e-04,
          -6.79987643e-05, -4.50848784e-05, 2.10491871e-05,
          6.89730077e-05, 6.23921587e-05, 9.25238637e-05, 1.65999023e-04,
          -5.62933019e-05, -4.90113562e-05, -3.82723192e-05,
          6.21414365e-05, 4.08783380e-05, 2.29198649e-05,
          -2.18934292e-05, 9.32558123e-06, -8.37965490e-05,
          -3.09874813e-05, -8.28519696e-05, -3.57062127e-05,
          6.76632480e-05, 9.64229330e-05, 2.78625394e-05,
          -6.14542587e-05, -1.36698936e-05, -4.57621973e-05,
          1.36303061e-05, 2.89992295e-05, -1.62836532e-05,
          2.02343617e-05, -5.31988990e-05, 2.62993944e-05,
          7.85926677e-05, 1.34900774e-05, 7.95992746e-05, 9.06735659e-06,
          -1.98527287e-05, -7.33913039e-05, -6.83686885e-05,
          -7.64664073e-05, -9.60568577e-05, 1.20741979e-05,
          1.31231718e-04, 5.61503657e-05, -8.92130572e-07,
          -8.17632008e-06, 4.04342827e-05 ]
      - [ 1.23572434e-04, 8.77354178e-05, 7.77617388e-05,
          -6.67057884e-06, -5.65286209e-05, -1.07708751e-04,
          -1.59105373e-04, -4.21404948e-05, 3.07350783e-05,
          1.25280116e-04, -1.30931410e-04, -5.63113645e-07,
          8.80288667e-07, -2.53250437e-05, -1.31501307e-04,
          -1.12590533e-04, 2.60379093e-05, -1.91041123e-04,
          -7.15223941e-05, -2.79695792e-06, 2.26214288e-05,
          6.32185984e-05, 5.88557305e-05, 6.34263051e-05, 1.18083626e-04,
          3.25149813e-05, -6.41664446e-05, -6.49084395e-05,
          7.95645319e-05, 1.27692392e-05, -8.38415726e-05,
          -2.17740344e-05, -4.29003558e-05, -1.05843239e-04,
          -1.45235346e-04, -8.32161895e-05, -2.40941554e-05,
          1.16185140e-04, 3.22794658e-05, 7.30362444e-05,
          -5.96469035e-05, -3.39094076e-05, -1.95489156e-05,
          -3.73856665e-07, 3.77678880e-05, 1.42697172e-05,
          5.76028651e-05, 1.29044502e-05, 1.78757298e-04, 1.28688625e-04,
          2.22170602e-05, 5.96221180e-05, 2.75457151e-05,
          -4.40205840e-05, -1.39236814e-04, -6.62342063e-05,
          7.16365685e-05, -2.61361547e-05, -3.36727790e-05,
          -2.55992745e-06, -8.49590069e-05, -6.79348377e-05,
          -2.70435066e-05, 4.05642277e-05 ]
      - [ 1.05599320e-04, 2.67110936e-05, -1.08453169e-05,
          4.73446853e-05, -8.19089018e-06, -4.57177739e-05,
          -5.73649995e-05, -1.19384771e-04, 1.53855653e-04,
          -5.38173372e-05, -3.97696022e-05, 9.85455972e-06,
          -1.01583340e-04, -5.44804789e-05, -8.33228769e-05,
          -1.19591496e-05, 4.81389252e-05, -1.06928637e-04,
          -1.12040201e-04, -6.81554375e-05, -1.69537798e-05,
          2.25226886e-05, 5.23035806e-06, 4.99143534e-05, 2.45732110e-04,
          9.55343639e-05, -9.03366345e-06, -9.69919347e-05,
          1.24998305e-05, -3.65440756e-05, 8.35027313e-05,
          1.15907278e-04, -5.37392116e-05, -8.04981319e-05,
          -3.32900199e-05, -1.14721777e-04, -7.09002488e-05,
          6.82489990e-05, 7.56581721e-05, 3.84372834e-05,
          -1.12928705e-04, 4.17835909e-05, 6.09219314e-05,
          -6.28170892e-05, -4.35368638e-05, -2.14113970e-06,
          7.83561773e-05, 3.33955468e-05, 1.13560949e-04, 9.23065745e-05,
          1.97194440e-05, 1.23217236e-04, 2.90286007e-05, 1.14893028e-05,
          -7.13434156e-06, -8.50162323e-05, -1.13124050e-04,
          -7.72551284e-05, 9.45332285e-05, 1.96488312e-04,
          4.15402319e-05, -7.15139322e-05, -6.45224864e-05,
          -4.72929096e-05 ]
      - [ 1.24903090e-04, 1.83118609e-04, 5.47498275e-05,
          -2.15244127e-05, -7.90761333e-05, 5.28618439e-05,
          -1.29251202e-05, -6.32355614e-06, -2.21446808e-05,
          -4.54994297e-05, 1.28748477e-04, -9.00349987e-05,
          3.39180588e-05, -3.59788100e-05, -1.13405760e-04,
          2.34735329e-04, 3.44761575e-05, -1.16153431e-04,
          -6.20367500e-05, -1.17372983e-04, 9.61317419e-05,
          -1.73551362e-05, -2.31492104e-05, -4.43273420e-05,
          -1.34953389e-05, -7.40502992e-06, 8.88211944e-05,
          4.19761127e-05, -2.25926342e-04, 9.16706767e-07,
          -8.75956175e-05, 9.97498137e-06, -2.53232894e-04,
          -5.17995031e-05, 1.29379274e-04, -3.89818924e-05,
          -1.25226006e-05, -5.84294648e-05, -8.41940564e-05,
          3.85058120e-05, 7.14497946e-05, 3.94437084e-05, 6.73469685e-07,
          2.55359237e-06, -2.34120507e-05, -8.14566520e-05,
          1.24013457e-06, -1.06738400e-04, 2.36612526e-04,
          -1.05580148e-04, 5.93396580e-05, -1.11063579e-04,
          -1.28482628e-04, -5.69715558e-05, -5.50182449e-05,
          1.25647115e-04, 1.35454567e-04, -1.58332274e-04,
          -7.73900028e-05, 1.11178824e-05, -1.38158197e-04,
          -1.73892695e-04, -8.46814582e-05, 1.08996188e-04 ]
      - [ 7.23523626e-05, 3.93353803e-05, -6.58224526e-05,
          -1.56759823e-04, -6.90079542e-05, 1.39067652e-05,
          -5.71426926e-06, -3.45628166e-07, -4.27787154e-06,
          -3.31565861e-05, 9.67105370e-05, -6.80059456e-05,
          -9.47089866e-05, -9.10554227e-05, -9.28448499e-05,
          1.45206650e-04, 1.30369575e-04, 3.79226981e-06,
          -6.29464785e-06, -1.90430237e-05, -5.84872214e-05,
          -4.79675691e-05, -1.68198724e-07, 0., -9.31086015e-06,
          -1.01436599e-05, -8.65473066e-06, 5.81524328e-05,
          -7.41888143e-05, -1.06340252e-04, -6.17486730e-05,
          9.25593122e-05, 8.34646489e-05, -4.49437721e-05,
          3.38832906e-05, -3.99283235e-05, -1.21239873e-05,
          -7.95004598e-05, -2.77507297e-05, 7.43139462e-05,
          4.30171858e-05, 1.93789765e-05, -2.46825693e-05,
          1.47493131e-06, 6.19278308e-06, -1.08820659e-05,
          -4.28539242e-05, 1.19256365e-05, -8.66845312e-06,
          -8.42799127e-05, -3.83720435e-05, 4.85052988e-06,
          5.94332341e-05, 8.49060161e-05, -1.51569493e-05,
          2.47129392e-05, 9.47859880e-05, -1.99801274e-04,
          -3.54367221e-05, 1.01863392e-04, 9.89663022e-06,
          -2.10255939e-06, -5.35360523e-05, -2.46504151e-05 ]
      - [ -2.35928328e-05, -2.00744980e-05, 3.91036701e-05,
          -7.84416698e-05, -6.58272402e-05, -8.01661663e-05,
          -1.29185908e-04, -1.59631381e-04, -1.29275242e-04,
          -5.42752714e-05, 1.68503917e-04, 2.66047186e-06,
          3.61599486e-05, 4.93575353e-05, 2.10822254e-05, 1.88740931e-04,
          5.77092687e-05, 3.56290657e-05, 1.34946356e-04, 2.50362791e-05,
          -1.07840651e-05, -1.18052565e-04, -4.82675823e-05,
          -8.71407465e-05, -5.76312923e-05, -5.03698866e-05,
          7.22497207e-05, -2.19837366e-05, -2.45895906e-04,
          -2.36085194e-04, -2.39207438e-05, 5.36682819e-05,
          -6.43295789e-05, -1.52703229e-04, -9.38492667e-05,
          -1.50914682e-04, -4.50668449e-05, -9.56271151e-07,
          4.44346588e-05, 1.40955541e-04, 1.11735069e-04, 1.21589565e-05,
          -2.19283970e-06, -6.82476593e-06, 2.50476733e-05,
          1.99604674e-05, 2.57465908e-05, -3.06993061e-05,
          6.31901348e-05, -1.21675410e-04, -9.02532047e-05,
          -6.16631369e-05, 7.53030599e-06, 9.09123337e-05,
          5.91043063e-05, 1.19662538e-04, -1.09720422e-05,
          -2.03789270e-04, -6.26839756e-05, 4.80163508e-05,
          -6.53789539e-05, -5.31848927e-05, -1.56951486e-04,
          1.59234332e-05 ]
      - [ -3.62734063e-05, 2.49778368e-05, 1.90403091e-06,
          -3.34274591e-05, 4.24567543e-06, 2.91019387e-05,
          -2.04666485e-05, -1.48923991e-05, -7.63785065e-05,
          -2.43117611e-05, 6.07894872e-05, 1.75131081e-05,
          3.76853022e-05, 4.72326974e-05, -1.27493695e-04,
          -4.18187192e-05, 1.06444939e-04, 7.71104824e-05,
          -1.48230727e-04, 1.50223314e-05, -9.01222847e-06,
          -3.31573356e-05, -3.81715254e-05, -5.39425355e-06,
          1.53765334e-09, 9.96075755e-07, 4.72248903e-05,
          -1.57036746e-04, -3.55112570e-05, -7.20874013e-05,
          9.24727101e-06, 7.06276987e-05, 7.01894824e-05, 2.83463805e-06,
          1.91329600e-05, -3.86949105e-05, -8.83029206e-05,
          -5.61967572e-05, -5.42952002e-05, 1.47424347e-04,
          6.83302787e-05, -2.89186501e-05, -1.15392570e-04,
          -9.11023308e-05, -1.68871811e-05, 2.52989639e-06,
          -1.55638463e-05, 4.24930731e-05, -4.35960319e-05,
          -9.99480690e-05, -2.63392121e-06, -5.58180145e-05,
          -5.03278625e-06, -1.84337750e-05, -2.15071377e-05,
          1.94979220e-05, 1.12252215e-04, -9.47703375e-05,
          -7.93924628e-05, 3.88189910e-05, -3.70573944e-05,
          -1.09523189e-05, 1.35877835e-05, -8.26917531e-05 ]
      - [ -9.67391097e-05, -9.16447389e-05, 1.90780964e-04,
          1.72285436e-05, 3.66950662e-05, 4.95380391e-06,
          -7.82968618e-06, -7.91199727e-06, -1.01589394e-05,
          -8.54715563e-06, 1.27579551e-04, 1.25605893e-05,
          1.30613780e-05, 1.92181305e-05, 1.96603341e-05, 1.35040405e-04,
          1.96093133e-05, -5.20846115e-05, 1.29785203e-05,
          6.10833304e-05, 4.07054613e-05, -5.54867693e-05,
          -1.01414416e-05, -4.51082960e-05, -4.84342527e-05,
          -1.55598973e-05, 2.15646669e-05, 5.23113667e-05,
          2.19462290e-05, -1.91775980e-04, 1.35057244e-05,
          1.06632251e-04, -2.46970831e-05, -6.11928135e-06,
          2.47814060e-05, -4.22766607e-05, -4.06451181e-05,
          -1.23204314e-04, -1.05786647e-04, 2.04302181e-04,
          1.90530773e-04, -1.85378143e-04, -1.29347582e-05,
          -3.56897249e-06, 1.52354887e-05, 8.92390926e-06,
          1.65524070e-05, 2.47570824e-05, 6.67222630e-05,
          -4.18779709e-05, -2.13477397e-05, -3.50774059e-07,
          -4.39750038e-05, 4.68669059e-05, -2.58588316e-05,
          1.21859543e-04, 1.60462892e-04, -1.24577404e-04,
          -1.48368345e-04, -9.85074003e-05, -3.54965923e-05,
          6.32468436e-05, -1.82935019e-05, -3.38315767e-05 ]
      - [ 2.28787569e-04, 2.15935779e-06, -1.40349921e-05,
          -2.19664231e-04, -1.41338431e-04, 1.13448377e-05,
          3.65554752e-06, 0., -5.21715810e-05, -8.08805489e-05,
          2.36318901e-05, -2.13042236e-04, -1.44900681e-04,
          -2.31920458e-05, -3.92741385e-05, 2.73791666e-04,
          -7.38306990e-05, -4.15186478e-05, 1.36266550e-04,
          -2.58071432e-05, -2.96386916e-05, 2.09300779e-07, 0., 0.,
          -3.74095202e-06, -1.33205485e-05, 1.65241872e-05,
          1.53406036e-05, 7.97970133e-05, -3.07766859e-05,
          -1.45543672e-04, 9.08717902e-06, -7.98624296e-06,
          -5.84156878e-05, 1.53099609e-05, -1.36786301e-04,
          -9.66177249e-05, -3.09446696e-05, 6.19508937e-05,
          9.49030946e-05, 1.07961649e-04, 3.57842655e-05,
          -3.02381682e-06, 9.68633503e-06, -3.85883759e-05,
          -1.31319161e-04, -7.68018290e-05, -5.91685348e-05,
          -1.65184902e-05, -2.51567053e-05, -1.33743772e-04,
          3.70010468e-07, 1.55926464e-05, 7.67089368e-05, 1.63080804e-05,
          -7.54169378e-05, -6.77582793e-05, -1.52000997e-04,
          -4.11532783e-05, 9.42290644e-05, 1.11253263e-04,
          -2.28412518e-05, 8.02409340e-06, 3.38420577e-05 ]
      - [ 1.78731134e-04, 4.38906864e-05, -2.82586589e-05,
          -1.99238988e-04, -5.21444417e-05, 4.05237406e-05,
          -4.40809672e-05, -6.91990062e-05, -3.27738744e-05,
          -6.96489806e-05, 9.61653059e-05, -6.43781386e-05,
          1.02301230e-04, 1.10673922e-04, -1.59462768e-04,
          5.85341586e-05, -2.29137095e-05, -3.35046279e-05,
          9.79027245e-05, 1.12051988e-04, 2.82179772e-05,
          -2.53798844e-05, -5.24065763e-05, -1.50276637e-05,
          -2.02032970e-05, -5.14544008e-05, 2.71223416e-05,
          -8.62305533e-05, 9.21625178e-05, -1.11481604e-04,
          -1.07449530e-04, -8.30435692e-06, -3.61540660e-05,
          -1.26447878e-04, -5.30298439e-06, -2.65284907e-04,
          -2.46476993e-04, -1.83203883e-04, -1.88880094e-05,
          1.78517614e-04, 1.04520717e-04, -8.84942856e-05,
          -1.09461536e-04, -4.67342907e-05, -3.95655152e-05,
          -3.64324442e-05, -7.86825622e-05, -2.54909482e-05,
          -2.32666639e-06, -6.85943014e-05, 5.29419303e-05,
          -2.57057900e-06, 4.47222737e-05, 1.53219720e-04,
          -1.89945320e-04, 5.21446600e-06, 1.50839915e-04,
          -1.81771728e-04, -1.47176877e-04, 3.60575068e-05,
          -1.46590173e-04, -3.03696816e-05, -1.10347893e-04,
          4.16893890e-05 ]
      - [ 7.16864179e-06, -4.18255222e-05, -1.68675524e-05,
          -9.07956783e-05, -9.11887764e-05, -2.49642926e-05,
          -8.12631479e-05, -3.73766743e-05, -1.45694794e-04,
          -1.40393007e-04, 1.23793172e-04, -3.93982991e-05,
          1.18143907e-05, 2.04357348e-05, -3.79674093e-05,
          1.98757465e-04, 2.92632285e-05, 4.11232613e-05, 1.45315053e-05,
          3.86724651e-07, -9.60742273e-06, -1.07912550e-04,
          -2.20256825e-05, -7.76940306e-06, -8.25721941e-07,
          -8.97321661e-06, 1.19088763e-04, -9.02709216e-05,
          -9.49211899e-05, -2.69528158e-04, -1.56242677e-04,
          2.81993300e-04, 3.98497068e-05, -5.76438615e-05,
          -8.61314911e-05, -1.27945910e-04, -1.41864512e-04,
          -1.22835190e-04, 1.11930931e-05, 1.65841804e-04,
          1.23889651e-04, 8.57007763e-05, -1.23541968e-05,
          -6.71056332e-05, -6.05539535e-05, -6.43638778e-05,
          -2.41972521e-05, 5.77473747e-06, -9.41225881e-05,
          -9.71121626e-05, -2.60360739e-05, -2.14108186e-05,
          4.23057863e-05, 1.45315047e-04, -1.52246530e-05,
          5.20950437e-07, -1.32827015e-04, -2.01267278e-04,
          -2.47364933e-05, 1.67196078e-04, 1.37082548e-04,
          -6.29191272e-05, -8.52242447e-05, -3.40323895e-05 ]
      - [ -1.44583639e-04, -4.51097934e-04, -3.23263172e-04,
          -4.18655167e-04, -3.00841552e-04, 5.39742352e-04,
          1.62465571e-04, 1.35199443e-04, -1.75481982e-04,
          8.63351597e-05, -2.32165301e-04, -3.01168366e-05,
          -2.10189493e-04, -3.98450939e-04, 2.44204584e-05,
          -1.81626907e-04, 4.88452322e-04, 3.65767424e-04,
          2.47446209e-04, 3.03051202e-04, -1.89533559e-04,
          -3.23830754e-04, -6.17063997e-05, 1.53223096e-04,
          5.05259028e-04, 5.64518967e-04, 1.28753149e-04, 1.23647860e-05,
          -2.53894814e-05, 1.48269581e-04, -3.11563781e-05,
          3.43923224e-04, 3.35820601e-04, 3.76192438e-05,
          -2.37830056e-04, 3.62810038e-04, 1.17231662e-04,
          1.71659965e-04, 2.19770256e-04, 3.53354670e-04, 2.60510162e-04,
          -3.07801129e-05, -2.02917421e-04, 2.25354976e-04,
          2.94952275e-04, 4.10964625e-04, 3.26555164e-04, 8.22738395e-04,
          -2.80710548e-04, -3.24803521e-04, -2.37489105e-04,
          2.71133438e-04, 2.03720672e-04, -7.77541354e-05,
          -1.74897883e-04, -4.43027646e-04, -3.06537317e-04,
          -1.96220877e-04, -5.17651970e-05, 6.84574261e-05,
          1.05810759e-04, 3.87881242e-04, -5.46729098e-05,
          9.59659337e-06 ]
      - [ -1.13848939e-04, -1.40840857e-04, -5.23943017e-05,
          1.74258734e-04, -7.38223898e-05, -1.32138302e-06,
          -6.34228418e-05, -8.18117769e-05, -1.43194004e-04,
          -2.02759929e-05, 5.42908929e-05, 1.66632584e-04,
          2.10423037e-04, 2.46154115e-04, 1.72738743e-04, 6.23916349e-05,
          -9.90884655e-06, 1.13492766e-04, 1.53814457e-04,
          2.50714074e-04, -3.37782403e-05, -2.57916622e-06,
          -8.12936996e-05, -7.03568294e-05, -2.78121315e-05,
          1.55262296e-05, -2.23559968e-04, -4.90393650e-05,
          4.36151422e-05, -1.59413947e-04, -9.25117365e-06,
          -2.91646302e-05, -6.12244594e-06, -2.10717117e-05,
          -1.91887841e-04, -2.29315083e-05, 1.24030747e-04,
          8.77673156e-05, 1.28326516e-04, 2.50898793e-05,
          -1.68763072e-05, 1.53751796e-04, -6.09405424e-06,
          1.80458082e-04, 1.27254476e-04, 1.20985474e-04, 6.24169988e-05,
          -9.97956977e-06, -5.31275473e-05, 1.76725389e-05,
          -4.12580775e-05, 3.19694700e-05, 1.04694904e-04,
          1.79877621e-04, 1.79464178e-06, 7.76273464e-06,
          -1.22071622e-04, -1.25923354e-04, 5.87771319e-05,
          -5.99111881e-05, 1.62054275e-04, -4.79655064e-05,
          -2.20084054e-04, -8.54524842e-05 ]
      - [ -1.51864151e-04, -4.73539621e-05, 2.33215997e-05,
          1.17713407e-05, 5.41127993e-05, 6.85768173e-05, 2.60338911e-05,
          -9.35298613e-06, -8.48578202e-05, 2.93795256e-06,
          1.20696328e-04, 5.57246640e-05, 8.20062050e-05, 6.47285924e-05,
          -1.18593947e-04, -1.98370457e-04, 1.17880430e-04,
          1.57990275e-04, 1.24546450e-05, 2.57999964e-05,
          -4.26427396e-05, 3.72262048e-06, -2.63679976e-05,
          1.79475410e-05, 6.89047156e-05, 7.35572612e-05, 6.91377209e-05,
          -3.82674807e-05, -9.51043039e-05, 1.50261840e-05,
          5.19339592e-05, 6.63299288e-05, 1.92803389e-04, 1.28798201e-04,
          6.79734731e-05, -2.01645835e-05, -7.63015996e-05,
          -9.50370886e-05, 4.04092279e-05, 1.27471343e-04,
          1.76990856e-04, -5.51724552e-05, -1.86041289e-04,
          -1.93935164e-04, -5.42822017e-05, 4.14917486e-05,
          3.52940697e-05, 1.41643701e-04, -1.29426786e-04,
          -8.87083734e-05, -9.22541367e-05, 6.38503479e-05,
          9.88100055e-06, -2.87161802e-05, 1.70007331e-06,
          -8.85156769e-05, -1.47673854e-04, 6.72611786e-05,
          1.02894941e-04, 8.62671877e-05, 3.99263481e-05, 8.64019385e-05,
          -2.14191004e-05, -1.21370467e-04 ]
      - [ -2.53298465e-04, -1.00660262e-04, -2.61198747e-05,
          1.86254052e-04, 3.31780102e-05, 9.56864169e-05, 6.50857037e-05,
          3.68323999e-05, -8.18003682e-05, -7.45346406e-05,
          -9.32668481e-05, 1.56050301e-04, 2.15389173e-05,
          1.78045419e-04, 1.40626347e-04, 7.74522050e-05, 7.57975940e-05,
          1.09951849e-04, 6.63220635e-05, 7.61824340e-05,
          -3.09635907e-05, 1.36153894e-05, 6.65163543e-06,
          4.97375277e-06, -4.18099698e-05, 8.62990491e-05,
          2.20884212e-05, 8.85305417e-05, -6.28117195e-05,
          7.79417023e-05, 5.28047203e-05, -3.33723438e-05,
          1.52609136e-04, -1.11900181e-05, -9.21150058e-05,
          -2.32188904e-05, -2.25882141e-05, 6.14299497e-05,
          -3.21100447e-06, 1.68187005e-04, 7.28062296e-05,
          -3.36429584e-05, -2.43923314e-05, -6.46008630e-05,
          1.02036305e-04, 7.20643657e-05, 5.74141741e-05, 6.53525567e-05,
          -1.40341090e-05, -8.69266369e-05, -6.81564197e-05,
          6.64233376e-05, 7.93482104e-05, 2.27525125e-05, 7.10975655e-07,
          -4.01298712e-05, -1.87136775e-05, -2.80530116e-07,
          -4.71175190e-05, -4.15314717e-05, -2.40759891e-05,
          9.11113693e-06, -2.12868690e-05, -6.29325950e-05 ]
      - [ 2.19283043e-04, -5.84184309e-05, -2.05701523e-04,
          6.10689749e-05, -4.64718178e-05, 1.70702246e-04,
          -1.21552284e-05, 2.69894226e-05, -5.41324380e-06,
          3.43810680e-05, 1.41693468e-04, -2.26558514e-05,
          -1.66989514e-04, -1.44706901e-05, 1.72426458e-04,
          2.04702024e-04, -2.16448898e-04, -2.99100907e-06,
          2.51905323e-04, -2.31614278e-04, -7.30036918e-05,
          1.35611685e-04, 2.01541159e-04, 1.23947015e-04, 3.48309295e-05,
          -4.69513725e-05, -2.31586135e-04, -3.11473887e-05,
          3.42809333e-04, 9.54352727e-05, 7.03596961e-05,
          -1.67292746e-04, 1.91656218e-04, 1.79209135e-04,
          6.41521765e-05, 1.83711545e-05, -1.88404578e-04,
          3.22667125e-04, 1.87498066e-04, 1.26931322e-04, 9.59308454e-05,
          -1.10138513e-04, -2.33988267e-05, -5.42372654e-05,
          -1.88884995e-04, -1.17149262e-04, 4.72186912e-05,
          -1.03754093e-04, -1.18105745e-04, 3.11045151e-05,
          -3.28514521e-04, 3.35034390e-04, 2.20567017e-06,
          -6.98132644e-05, 4.95626482e-05, 6.43280146e-05,
          -4.01013618e-04, -3.01986904e-04, -3.57104618e-05,
          1.49598171e-04, 4.93407424e-04, 2.22752205e-04, 1.13447852e-04,
          -2.56041181e-04 ]
      - [ -9.37804944e-05, 3.95074894e-05, -1.12439222e-04,
          5.85467387e-05, -5.88897710e-05, -1.51088519e-04,
          -4.46646038e-04, 2.49504868e-04, -2.04678690e-05,
          -2.03481861e-04, -3.10099014e-04, 1.86213467e-04,
          2.29951940e-04, -1.61764347e-05, -4.59820207e-04,
          -4.74106870e-04, -3.84887062e-05, 3.01964697e-04,
          1.75418114e-04, 3.34253244e-04, -2.07879610e-04,
          -9.03661203e-05, -8.53967358e-05, -2.42934257e-04,
          4.25068574e-05, 4.74609878e-05, 5.45621078e-05, 3.37884587e-04,
          2.05483011e-04, 1.14114991e-04, -7.06684805e-05,
          -3.53118339e-05, 2.68121745e-04, -7.17228322e-05,
          -1.30618209e-04, 1.78779446e-04, -3.03089881e-04,
          -1.21366211e-04, 6.67088752e-05, 2.69436045e-04,
          -6.48452915e-05, 2.90673306e-05, -9.93091453e-05,
          -8.72056989e-05, 1.18457880e-04, 2.11184379e-05,
          3.19610699e-04, 4.59558010e-04, -1.80207717e-04,
          -3.19056213e-04, -2.78420950e-04, 1.51987333e-04,
          3.58300895e-04, 1.00134050e-04, -2.42320632e-04,
          -4.00473393e-04, -1.21633006e-04, -2.28167246e-05,
          3.96319883e-05, -2.23860785e-04, -7.72252170e-05,
          2.53884682e-05, -9.62196573e-05, -1.17343618e-04 ]
      - [ -8.44416572e-05, -9.76805604e-05, -4.74412809e-05,
          -1.42870686e-05, 2.01323401e-05, 6.33481031e-05,
          -3.90328860e-05, -4.12158697e-05, 4.01165926e-06,
          -9.49939349e-05, -7.40468095e-05, 7.06740248e-05,
          6.64919426e-05, 8.56942133e-05, 4.08780652e-05,
          -1.01632970e-04, 2.44141829e-05, 6.21366125e-05,
          6.63120154e-05, 1.62995129e-04, -3.61726125e-05,
          -6.93460897e-05, -1.71047523e-05, -5.02530675e-05,
          4.05136598e-05, -1.25357838e-05, 7.78146277e-05,
          2.89341606e-05, -1.28615216e-06, -8.58988424e-05,
          6.10120369e-05, 3.94231138e-05, 9.45114298e-05,
          -1.62338274e-05, -8.33944141e-05, -6.92249614e-06,
          -8.99092483e-05, 2.97203296e-05, 5.79776570e-05,
          -1.68025381e-05, 7.71505511e-05, -9.66209313e-07,
          -1.47949322e-05, -6.77335993e-05, -6.26366527e-05,
          -6.96632333e-06, 6.00761923e-05, 1.25919949e-04,
          -1.47922954e-04, -2.17683300e-05, -1.03707156e-04,
          3.88892295e-06, 1.49843196e-04, 1.09165507e-04, 9.85802908e-05,
          -6.79297664e-05, -2.10248996e-04, -1.20624543e-04,
          1.47327111e-04, 1.25585488e-04, 2.12687410e-05, 3.56031633e-05,
          -6.22178559e-05, -9.30488095e-05 ]
      - [ -9.81519261e-05, 1.35093951e-05, 1.30370972e-04,
          1.11836271e-04, 8.07158649e-05, -6.99072771e-05,
          -6.92467511e-05, -1.28228829e-04, -1.18633638e-04,
          8.70988806e-05, -7.50210074e-06, 2.14225613e-04,
          1.56393522e-04, 1.98598776e-04, 1.26351253e-04,
          -5.76683233e-05, -1.32020912e-04, 8.30863864e-05,
          1.04643877e-04, 1.39588141e-04, 5.09841084e-05,
          -2.04602725e-06, -4.44050784e-05, -7.53604691e-05,
          -1.31406177e-05, -5.13493324e-05, -7.20804701e-06,
          -6.93036418e-05, -5.67262759e-05, -2.03643067e-05,
          7.43249620e-05, -9.44431813e-05, -1.30950299e-04,
          -1.29678025e-04, -1.09446795e-04, -5.59208675e-05,
          5.48912867e-05, 7.72601416e-05, 1.65332385e-04,
          -2.30131118e-05, -4.88472033e-05, -5.27889824e-05,
          -7.61959791e-06, 1.30778455e-04, 1.74824308e-05,
          5.23385497e-05, 8.33666563e-05, -4.60946285e-05,
          6.24036329e-05, 2.58515192e-05, 5.35652689e-05,
          -7.78934555e-05, -1.27901585e-04, -4.01835205e-05,
          1.01369602e-04, 3.59504770e-06, -9.28190493e-05,
          -5.13839259e-05, 4.56470298e-05, -1.07124593e-04,
          -3.59224905e-05, -6.36197583e-05, -1.83848402e-04,
          -1.01823767e-04 ]
      - [ -1.63618766e-04, 8.20916393e-05, 1.71667052e-04,
          3.40302562e-04, 3.04546935e-04, 4.89290142e-05,
          -1.00569559e-04, -1.30113898e-04, -1.46324237e-04,
          -2.20797538e-05, 1.22060039e-04, 1.15767180e-04,
          3.30462848e-04, 1.20266217e-04, 8.27423901e-06,
          -2.67598312e-04, 1.37528492e-04, -9.23368498e-05,
          -9.40612517e-05, -7.47165614e-05, 2.53857197e-05,
          1.10991248e-04, -2.88307547e-05, 8.67723938e-05,
          7.63453063e-05, 5.96894097e-06, 8.95760313e-05,
          -7.30822139e-05, 2.17032848e-05, 3.39450307e-05,
          2.50159501e-04, 2.39870624e-05, 4.24569698e-05, 2.30521677e-04,
          -8.49905337e-05, -3.12765944e-04, -1.84434160e-04,
          1.98153739e-05, -8.76226404e-05, 4.38039715e-05,
          3.28111229e-04, 1.18680968e-04, -8.39297863e-05,
          -3.53083771e-04, -2.32732942e-04, -1.84069984e-04,
          2.54353345e-05, 1.94941807e-04, -1.78448434e-04,
          9.91251363e-05, -4.92385188e-05, -3.87972505e-05,
          -1.81113181e-04, -1.68340775e-05, 2.10495673e-05,
          -1.01790407e-04, -2.87094445e-05, 1.05840794e-04,
          -1.36309929e-04, -1.06374777e-04, -7.87585814e-05,
          4.74818844e-05, -3.94651070e-05, -7.92316350e-05 ]
      - [ -1.50278793e-04, -9.12750402e-05, 3.21055668e-05,
          1.23520891e-04, 7.94971056e-05, 3.97410950e-05,
          -3.26826330e-06, 1.82776637e-06, -3.98704397e-05,
          4.10745361e-06, -9.82692800e-05, 1.16418429e-04,
          8.78428909e-05, 9.38372468e-05, 7.31647087e-05, 3.14587851e-05,
          -9.22467952e-05, 2.90878106e-05, 8.19360139e-05,
          6.97467840e-05, 7.12128458e-05, 4.94941341e-05,
          -6.46250410e-05, -6.45323325e-06, -8.04942683e-05,
          -2.03258751e-05, 2.80097847e-05, 6.58679255e-06,
          9.38993398e-05, 7.90094346e-05, 2.21993014e-06,
          -3.35683217e-05, 5.90491836e-05, 5.33531274e-05,
          -4.53141984e-05, -6.82573227e-05, 3.08949457e-05,
          -7.63013213e-06, 8.71231096e-05, 8.23440423e-05,
          3.25904984e-05, -6.04641536e-05, 1.76912690e-05,
          2.73104670e-05, 3.53064970e-05, -6.36828986e-07,
          3.68675464e-05, 5.09523452e-05, 6.56459524e-05,
          -2.04210974e-05, 3.68525325e-05, -6.65284970e-05,
          -1.73348708e-05, -1.05402742e-05, 6.26184847e-05,
          5.99052801e-05, 4.26782026e-05, 3.02022218e-05, 1.01571604e-05,
          -1.50732769e-04, -1.76892972e-05, 3.84460691e-05,
          4.02982841e-05, -3.24930115e-05 ]
      - [ 2.44910392e-04, 1.60203708e-04, 3.93900409e-04,
          -6.23449814e-05, -2.74966915e-05, -1.87966998e-05,
          -3.00828451e-05, -7.47875038e-06, -3.90883433e-05,
          -6.68842040e-05, -2.29667887e-04, 1.54816502e-04,
          3.46439701e-05, -1.26367740e-04, 1.28426545e-04,
          5.60008048e-04, -1.64283018e-04, 3.06008529e-04,
          -7.16388895e-05, -1.30886292e-06, 1.94895867e-04,
          2.86849536e-04, 3.33623029e-05, -9.99610165e-06,
          6.51697383e-06, -5.49281212e-05, -1.60708951e-04,
          3.11676966e-04, 3.67659377e-04, 1.22060101e-05,
          -5.14889653e-05, -2.17510882e-04, -1.45995829e-04,
          2.90741213e-04, -1.64808385e-04, -4.31689405e-04,
          -5.09810343e-06, 1.46224091e-04, 2.40282279e-05,
          3.13057244e-05, 2.47373246e-04, 5.23651215e-05, 1.71054504e-04,
          -2.44964263e-04, -3.77955555e-04, -3.74435505e-04,
          1.41647048e-04, -4.69834136e-04, -4.58088616e-05,
          -2.12702405e-04, -1.10311652e-04, -1.03984836e-04,
          -1.71794109e-05, -7.36371876e-05, 1.05814041e-04,
          1.84132034e-04, -2.40127294e-04, -3.25175148e-04,
          4.11786350e-05, -1.94754452e-04, 6.34429962e-05,
          1.27209583e-04, 4.17901872e-04, -1.57325456e-04 ]
      - [ -7.76234810e-06, 8.35398896e-05, 8.66293631e-05,
          1.32644825e-04, -8.45809836e-07, -2.77594459e-04,
          -2.05972188e-04, -8.94855566e-06, -1.15019619e-04,
          -6.00083804e-05, 1.04765633e-04, 2.54077167e-04,
          2.56455649e-04, -5.53043028e-05, -9.55615324e-05,
          -2.71244007e-05, -3.18761042e-04, 1.38288342e-05,
          -4.71327585e-05, 2.77383835e-04, 3.45034467e-04,
          9.72257767e-05, 4.36250302e-05, -6.01072134e-06,
          -1.15608054e-04, -4.44009056e-04, -2.68711992e-05,
          1.63685618e-04, 1.92198771e-04, 7.17002549e-05,
          -9.69143148e-05, -1.42749035e-04, -9.89235414e-05,
          -2.17810957e-04, -6.74999319e-05, -2.14734871e-04,
          -9.14843258e-05, -5.83425572e-05, 3.89099914e-05,
          -5.64145084e-05, 7.10744644e-05, -2.99457952e-05,
          -2.46448162e-05, -3.47285959e-06, -1.68030514e-04,
          -6.00574385e-05, 1.48683495e-04, 1.20624345e-05,
          3.48130707e-05, 1.29744367e-04, 1.47431811e-05,
          -9.79676770e-05, -5.54442995e-05, 3.15370198e-05,
          2.67912310e-05, -2.01243565e-05, 2.64763494e-05,
          1.64318553e-04, -2.85336992e-05, -2.30066915e-04,
          -2.69914657e-04, 3.27746166e-05, 1.72708809e-04,
          7.48870370e-05 ]
      - [ -2.79862987e-04, 3.53732576e-05, 1.34726462e-04,
          2.18088520e-04, -1.86793131e-05, -2.63492748e-05,
          -1.68170867e-04, -6.37710400e-05, -1.43010344e-04,
          -9.07338617e-05, -1.76637972e-04, 1.46939026e-04,
          2.33451094e-04, 1.56253969e-04, 7.24763740e-05,
          -4.05434766e-05, -6.86289204e-05, 1.17059913e-04,
          1.29724474e-04, 1.85406359e-04, -4.10666362e-05,
          -1.19370896e-04, 1.05547690e-04, -5.69399708e-05,
          6.74855437e-06, -3.67204302e-05, 1.01811325e-04,
          1.09722105e-05, 3.78900513e-05, -1.02424223e-04,
          1.51856817e-04, -3.80348138e-05, -1.79500828e-04,
          -2.91150445e-05, -7.06915525e-05, -1.65126854e-04,
          -7.98942274e-05, 2.49148106e-05, 1.72243570e-04,
          8.42003737e-06, 3.44692453e-05, 3.42134917e-05, 6.58557337e-06,
          4.44404614e-05, -1.81342330e-04, -1.28268672e-04,
          -1.50889146e-05, 1.79705530e-05, -1.95809102e-04,
          3.80923348e-06, 4.77979629e-05, -7.65765144e-05,
          -1.26204122e-05, -3.80305537e-05, 2.93563789e-04,
          4.75150819e-06, -2.58276210e-04, -2.21676892e-04,
          1.23167265e-04, 6.25476241e-05, 6.74421744e-06, 6.83230537e-05,
          -7.72792464e-06, -2.75894796e-04 ]
      - [ -5.78557301e-05, 5.15569664e-05, 8.38731921e-06,
          -1.83738962e-06, 2.18295845e-05, 3.84712366e-05,
          5.56467858e-05, 7.61417832e-05, -5.15171560e-05,
          4.15284849e-05, 5.86391070e-05, -7.32698572e-06,
          -1.39344756e-05, -1.60212676e-05, -1.19255055e-04,
          -1.40178308e-04, 4.21959921e-05, 9.60982288e-05,
          -1.15628856e-04, -2.23098432e-05, -4.26347979e-05,
          1.28507681e-05, -3.47402602e-05, 2.32266848e-05,
          6.48594287e-05, 4.33056885e-05, 1.08122083e-04,
          -8.26711694e-05, -4.80422677e-05, -1.99205042e-05,
          5.45726216e-05, 6.24630920e-05, 1.68691520e-04, 1.02560945e-04,
          1.19749580e-04, 5.75857075e-06, -8.80417429e-05,
          -1.12714857e-04, -1.09618022e-05, 5.13239975e-05,
          1.20734512e-04, -7.47082868e-06, -1.79382710e-04,
          -2.03146061e-04, -6.43631138e-05, -2.02816864e-05,
          -2.26119937e-05, 1.04869854e-04, -5.95790698e-05,
          -1.40067161e-04, 5.64128059e-05, -1.03133498e-05,
          -2.86320610e-05, -7.44814533e-05, -9.91972265e-05,
          7.06555329e-06, 3.44061809e-05, 8.22115398e-05, 1.69210471e-05,
          5.36776097e-05, 1.31098304e-05, 5.78959261e-05, 1.13657334e-04,
          -1.90024275e-05 ]
      - [ -3.32271185e-04, -6.42161176e-05, 9.22966065e-05,
          3.83250554e-05, 5.33757739e-05, 1.28233718e-04, 2.32323451e-04,
          1.73249020e-04, -2.05863762e-05, -2.39239562e-05,
          -3.02018365e-04, 1.77508482e-05, 2.31391805e-05,
          2.79181895e-05, 1.37313637e-05, 4.38805073e-05, 1.03845878e-05,
          1.02555598e-04, -1.31049819e-04, -5.12651332e-06,
          -3.61855200e-06, 1.18007454e-04, -4.04021448e-05,
          -5.66180315e-05, -2.59541208e-04, -5.64094819e-07,
          8.57106425e-05, 2.34862149e-04, 2.66006791e-05, 1.03364277e-04,
          7.12227047e-05, -1.15995834e-04, 2.09571532e-04,
          2.06626544e-04, -8.54748578e-05, -1.56684415e-04,
          -1.14706309e-04, -1.82099058e-04, -1.19626020e-04,
          1.73628709e-04, 9.99997646e-05, -2.41740490e-04,
          3.41233572e-05, -1.65019956e-04, 7.00072542e-06,
          -5.71000492e-05, -2.45201954e-05, 4.24430473e-05,
          6.25371613e-05, -1.71338004e-04, 5.82932216e-06,
          -9.43358755e-05, 4.63139695e-05, 1.35224604e-04,
          -6.76737473e-05, -8.28116681e-05, 1.82287404e-04,
          1.27063802e-04, -5.21215552e-05, -1.89341808e-04,
          -2.03847565e-04, 4.41416996e-05, 1.04727755e-04,
          4.95820041e-06 ]
      - [ 1.62542827e-04, 1.36605493e-04, -5.50914556e-05,
          -1.81776326e-04, -1.19973607e-04, 7.02416000e-05,
          1.00836885e-04, 7.02958569e-05, 7.19348100e-05, 8.30736917e-06,
          -1.09221517e-04, -1.46290549e-04, -2.17367226e-04,
          -1.11814879e-04, -6.70319205e-05, 1.10669389e-04,
          -2.81915381e-05, -1.86007703e-04, -1.08777553e-04,
          1.72429391e-05, -4.75555134e-05, 7.66516750e-05,
          7.74462969e-05, -7.41489384e-06, 1.75737223e-05,
          3.10155447e-05, -4.48112296e-05, 3.15639409e-05,
          1.57268267e-04, 2.11515915e-04, -6.35683755e-05,
          -3.08874551e-05, 1.13025446e-04, 1.55831876e-04,
          9.45253341e-05, -4.01115813e-06, -9.92830828e-05,
          5.37263113e-05, -3.28065616e-05, 4.86075442e-05,
          -2.82138953e-05, -3.51632152e-05, 1.34605625e-06,
          -1.19060227e-04, -6.13673619e-05, -2.25430224e-04,
          -5.65731098e-05, -1.48111110e-04, 6.03123135e-06,
          -1.97795947e-04, -1.39018841e-04, 4.45547448e-05,
          1.01328311e-04, 5.72348426e-07, -3.21590815e-05,
          -1.12872563e-04, -9.06009227e-05, -2.91345641e-05,
          -5.30205107e-05, 1.58717507e-04, 1.92363688e-04,
          1.56433438e-04, 2.11129518e-04, 4.08300111e-05 ]
      - [ 4.83542499e-05, 1.99267160e-04, -6.57507626e-05,
          -1.28808082e-04, -9.49403984e-05, -4.13459165e-05,
          4.11526489e-05, 2.24341871e-04, 1.13111731e-04,
          -1.14566756e-04, -9.05061752e-05, -3.14112403e-05,
          -1.70380619e-04, -2.37494853e-04, -3.33389995e-04,
          -3.60614795e-05, -7.65159712e-05, -7.59761679e-05,
          6.25662824e-06, 1.14001690e-04, 7.84114400e-06,
          -4.99656235e-05, 1.90845785e-05, -2.14003827e-04,
          -3.34116630e-05, 7.42034827e-05, 1.45350234e-04,
          7.70029146e-05, 1.37149473e-04, 1.73371212e-04,
          -1.02990838e-04, -1.58024573e-04, 1.77480979e-04,
          1.34782076e-05, 4.12292029e-05, 2.28893405e-05,
          -2.69790646e-04, -1.78320406e-04, -4.50318512e-05,
          1.49775801e-07, -4.57166861e-05, -1.16131574e-04,
          -1.36689006e-04, -3.10468778e-04, -1.86624427e-04,
          -2.68682634e-04, 1.27790154e-05, 3.38218269e-05,
          -5.98250990e-05, -2.08373531e-04, -9.39244128e-05,
          2.25795829e-05, 9.09203227e-05, 1.34082788e-04,
          -3.77521646e-04, -8.57972773e-05, 1.86670281e-04,
          1.25992141e-04, 1.34658458e-05, 7.46914666e-05,
          -1.27622261e-04, 1.15994248e-04, 8.45486720e-05,
          8.69181531e-05 ]
      - [ -5.29082245e-05, -3.35368422e-05, -3.96803283e-04,
          -2.86139693e-04, 1.90669361e-05, 2.60648230e-04,
          1.46770486e-04, -4.73345899e-05, -9.70256879e-05,
          -2.71293480e-04, -6.19133818e-04, -3.75450327e-04,
          -1.42772202e-04, -4.92261752e-05, -9.34267809e-05,
          -1.70696672e-04, 1.96301899e-05, 2.95217933e-06,
          -4.14283313e-05, 1.90813866e-04, -2.84732319e-04,
          -4.19303142e-05, -8.74768011e-05, 1.48451276e-04,
          1.22326426e-04, 6.39249920e-05, 2.74139461e-06, 2.78996915e-04,
          1.40091463e-04, 2.25912823e-04, -2.63905531e-04,
          -6.78104989e-05, 1.86895762e-04, 1.38692179e-04,
          -1.95585130e-06, 9.31135583e-06, -4.36319009e-04,
          -4.03472921e-04, -3.51264316e-04, -3.89261841e-05,
          1.24399347e-04, 1.43886049e-04, -1.57761533e-04,
          -5.06749668e-04, -6.88876607e-04, -4.37145995e-04,
          -2.61419540e-04, -1.10117704e-04, -2.94387264e-05,
          -4.13545669e-04, 1.56145805e-04, 2.70957535e-04,
          2.86020309e-04, -8.44635942e-05, -1.39247495e-04,
          -1.37764393e-04, -1.12143076e-04, 2.33371888e-04,
          2.00167284e-04, 4.98271082e-04, 2.49798322e-04, 2.13233157e-04,
          1.14759969e-04, -4.84051161e-05 ]
      - [ -6.51530499e-05, -1.19873097e-04, -9.44091153e-05,
          1.12735223e-04, 3.33237404e-05, 5.46166630e-05, 2.59964290e-05,
          1.13283182e-04, -8.81173037e-05, -1.18599302e-04,
          -1.47130428e-04, 5.37905107e-05, 1.46473794e-05,
          1.37412289e-05, 3.63705985e-05, 1.89946819e-04,
          -2.01591887e-04, 4.46609374e-05, 1.20645258e-04,
          6.50373931e-06, 2.81651719e-05, -6.61114027e-05,
          -5.77681533e-07, 2.59981825e-05, -1.41517638e-04,
          -6.22184816e-05, 8.11953214e-05, 2.50301615e-04,
          7.14543057e-05, 8.94502446e-05, -4.91619940e-05,
          -1.22861587e-04, -1.71057491e-05, 2.28487479e-05,
          -1.37295166e-04, -7.35413996e-05, 1.70571511e-05,
          1.80950505e-04, -3.34789875e-05, 2.08949932e-05,
          -1.45753977e-04, -4.11955189e-05, 1.81873853e-04,
          1.90618244e-04, 8.88029463e-05, -1.34822167e-05,
          1.48920390e-05, 4.64627510e-06, 9.57561278e-05, 5.29563440e-05,
          7.88411580e-06, -3.21174739e-05, 1.12204674e-04,
          1.05187486e-04, 7.15473943e-05, -4.74423723e-05,
          6.85467821e-05, 4.79691917e-05, -7.96368258e-05,
          -1.39695621e-04, -9.10550007e-05, -8.34813836e-05,
          2.38733410e-05, 1.15338509e-04 ]
      - [ 1.38658579e-04, 2.03043073e-05, -3.87164037e-05,
          -8.00457856e-05, -1.02099744e-04, 1.24026337e-05,
          3.74805568e-05, 3.50943483e-05, 7.42601333e-06,
          -6.39379577e-05, -4.91323808e-05, -4.28892963e-05,
          -6.39506907e-05, 1.61988428e-05, 9.62701961e-05,
          1.67624486e-04, -6.52836025e-05, -1.06395222e-04,
          1.25901628e-04, 2.02226456e-05, 9.16962654e-06, 4.38205498e-05,
          5.11956205e-05, -4.27525483e-05, -3.79579978e-05,
          -3.55439843e-05, -8.45703908e-05, 3.58725738e-05,
          7.35243739e-05, 1.15331328e-04, 2.58878226e-05,
          -1.24042199e-04, -8.59568318e-05, -5.37258420e-05,
          8.82867516e-06, 8.86173257e-06, 4.27509185e-05, 9.51703551e-05,
          1.93156466e-05, -2.40893187e-05, -5.10915888e-05,
          -5.55801926e-05, 1.33471491e-04, 2.19413676e-04,
          3.15011603e-05, -6.16951002e-05, -3.97649601e-05,
          -1.09317705e-04, 1.20418801e-04, 5.46330448e-05,
          -4.87488069e-05, 2.88455940e-05, 1.63134755e-05,
          3.48222129e-05, 6.37444537e-05, 2.51256151e-05,
          -3.27598646e-05, -6.52306626e-05, -1.79620031e-06,
          3.98564371e-05, 6.27369591e-05, 1.95594816e-06,
          -4.06043682e-06, -5.41405316e-05 ]
      - [ 1.76603528e-04, 5.33881612e-05, -8.30460849e-05,
          1.79391463e-05, -1.00969912e-04, -1.74817600e-04,
          -8.48484924e-05, 6.12642689e-05, 6.12843505e-05,
          -3.33388452e-05, -1.34905815e-04, -2.17266133e-04,
          1.32413712e-04, 1.50383290e-04, -4.98148183e-05,
          1.43997502e-04, -3.40152124e-04, -3.60359583e-04,
          1.66565907e-04, 2.80613778e-04, 2.47370568e-04,
          -2.09960490e-05, 9.99003169e-05, 1.41987955e-04,
          -1.76797213e-04, -2.08466779e-04, 3.07650116e-05,
          3.45718378e-04, 1.14059170e-04, 2.94475933e-04,
          -2.79257765e-05, -2.64796370e-04, -1.88373597e-04,
          -3.05537658e-04, -2.39877831e-04, -1.11164998e-04,
          -3.23536769e-05, -2.10268990e-04, -1.80515432e-04,
          -2.28028221e-04, -7.79560796e-05, 1.56961069e-05,
          1.38779797e-04, 3.83101957e-04, 4.07413063e-05,
          -6.43509047e-05, -8.69557480e-05, -1.86961595e-04,
          2.16573622e-04, 2.36659165e-04, 1.55421440e-04, 1.09377790e-04,
          2.65638548e-04, 8.67410636e-05, -5.95894016e-05,
          1.07851352e-04, 1.55398830e-05, -1.24096696e-04,
          2.28082590e-05, -1.95214016e-04, -1.87462851e-04,
          -3.24643188e-04, 1.03676153e-04, 2.94640631e-04 ]
      - [ 1.44794307e-04, 1.93228861e-05, -1.08959903e-04,
          -5.34930114e-05, -6.61951126e-05, -9.18865135e-06,
          -1.11623567e-05, -4.69530933e-05, 8.56864644e-05,
          -7.55754227e-05, -1.11504909e-04, 9.51300353e-06,
          -1.35577997e-04, -1.94444037e-05, 9.07509966e-05,
          1.21389538e-04, -1.31802241e-04, -3.62554420e-05,
          1.99921968e-04, -3.83911902e-05, 5.99965606e-05,
          -6.87590000e-05, 3.28811402e-05, -1.48652674e-04,
          8.36940126e-06, -2.47533808e-05, 4.57487149e-05,
          1.18007069e-04, 1.48798858e-06, 5.00382230e-05, 1.74859251e-05,
          -5.07275981e-05, -3.60628619e-05, -7.40077230e-05,
          -1.35474576e-04, 9.05886100e-06, 8.45262093e-06,
          1.09146204e-04, 1.08175380e-04, -1.71318476e-04,
          -1.01372811e-04, 3.67825887e-05, 1.88065897e-04,
          1.88943333e-04, -6.22632360e-05, -7.54890789e-05,
          -4.71213898e-05, -6.62293678e-05, 4.29681895e-05,
          3.92351285e-05, -5.43518436e-05, 4.20891865e-06,
          6.35795222e-05, 7.70812767e-05, 1.45860438e-04, 4.86917379e-05,
          -1.48335617e-04, -1.46244347e-04, 1.46961072e-04,
          6.69878427e-05, -1.67715662e-05, -4.74816406e-05,
          7.40438099e-06, -5.21835682e-05 ]
      - [ 1.74523870e-04, 7.99721383e-05, -9.01291799e-07,
          -9.44857093e-05, -9.23360421e-05, -2.03073687e-05,
          -6.06090771e-06, 1.25350080e-05, 4.47385974e-05,
          -1.42024737e-05, 8.68060524e-05, -8.24233139e-05,
          -9.07556823e-05, -4.00871904e-05, -3.54573567e-05,
          3.09487177e-06, -3.89144152e-05, -9.55795258e-05,
          -1.25947481e-05, -2.76890496e-05, 2.09829250e-05,
          2.04800108e-05, 6.57466298e-05, 1.41930095e-05, 2.54220886e-05,
          -3.63082545e-05, -5.93072218e-05, -1.30137573e-06,
          8.19602428e-05, 1.81002742e-05, 3.59279984e-05,
          -2.73798069e-05, -4.40633667e-05, 1.52243783e-05,
          8.49607968e-05, -1.51840914e-05, -4.35434595e-05,
          1.81050800e-05, 1.71388383e-05, -8.73546160e-05,
          9.70355268e-06, 3.50916634e-05, 8.15502517e-06,
          -2.45381743e-05, -3.64043299e-05, -4.14660499e-05,
          -1.62245487e-05, -8.28564953e-05, -4.20737560e-05,
          1.40658376e-05, -3.31529263e-05, 8.00817725e-06,
          -1.29934688e-05, -1.52298262e-05, 1.01545347e-05,
          -3.65000888e-05, -7.41231124e-05, -8.57164341e-05,
          1.39494296e-05, 9.33211923e-05, 6.48059649e-05, 2.13514272e-06,
          3.96055475e-06, 1.31917541e-05 ]
      - [ 3.48302157e-04, 3.38956772e-04, -8.92465978e-05,
          -2.53704115e-04, -1.81464377e-04, -1.05787905e-04,
          -1.06775158e-04, -6.15074168e-05, 6.68342036e-05,
          8.69110154e-05, 1.57760034e-04, -8.52685844e-05,
          -2.01949024e-05, -5.36090192e-05, -2.15528446e-04,
          -3.30713461e-04, -1.31913199e-04, -8.87163405e-05,
          -3.46932302e-06, 2.59499075e-06, 7.17781513e-05,
          -1.58275707e-05, 1.12803100e-04, -1.04086670e-04,
          1.45419381e-05, -7.69868711e-05, -1.32868387e-04,
          5.55595943e-05, 9.51834372e-05, -1.12490714e-04,
          -8.36111285e-05, -4.34544600e-05, -5.45912771e-05,
          -9.04128610e-05, 1.08316017e-04, 8.25472598e-05,
          4.72988067e-05, -6.73776158e-05, -2.51337362e-04,
          -1.44609425e-04, 3.06449983e-05, 8.79495346e-05,
          -2.91283704e-05, -8.28973934e-05, -1.12403621e-04,
          -1.00162761e-04, -4.91011951e-06, -1.15314993e-04,
          -1.65585327e-04, 1.11665737e-04, -7.75486260e-05,
          -1.33116991e-05, 5.60827721e-05, -1.36307835e-05,
          -1.73380686e-04, 2.87308836e-07, 9.73889928e-06,
          -3.65197266e-05, -4.73534456e-05, 1.00655372e-04,
          4.29669308e-05, 9.67632659e-05, -3.78522600e-05,
          7.05631392e-05 ]
      - [ 1.29886583e-04, 1.07282234e-04, -1.13800335e-04,
          -7.97989196e-05, 1.24492806e-06, -3.98234879e-05,
          -1.53490382e-05, -1.96337332e-05, 4.10034227e-05,
          2.21984919e-05, 9.11345069e-06, -2.65525596e-05,
          -5.78376457e-05, -1.06284951e-05, -2.89955078e-05,
          -8.76728373e-05, -4.35753100e-05, -2.78241114e-05,
          -5.65743085e-06, 1.63103305e-05, 6.32418323e-06,
          -4.93455300e-05, 1.58114308e-05, -1.07056449e-05,
          7.75916778e-05, 8.48923537e-06, -5.37781989e-06,
          -6.06476970e-05, 6.97180030e-06, -3.67858083e-05,
          6.29403658e-05, 1.76471440e-05, -2.13030726e-05,
          -3.98341945e-05, 1.08540762e-05, -2.06891418e-05,
          -4.18837699e-05, -3.15190046e-05, 1.03267321e-05,
          -1.29873224e-04, -4.11711335e-05, 7.94059379e-05,
          3.29505497e-06, -6.91314926e-05, -9.06526693e-05,
          -1.84974906e-05, -2.96419257e-05, -2.75749171e-05,
          -4.63107026e-05, 2.66701973e-05, -3.17887680e-05,
          7.96349632e-05, -2.81051780e-05, 3.72898467e-05,
          -7.46512569e-06, 2.58978835e-05, -1.90977604e-04,
          -1.12546375e-04, 1.71162814e-04, 1.65902093e-04,
          5.50348050e-05, -5.56869672e-05, -6.98732583e-06,
          -3.92344773e-05 ]
      - [ -4.36944356e-05, -4.43795261e-06, 1.42997387e-05,
          1.64941463e-04, 1.05387087e-04, -1.09071989e-04,
          -2.36184031e-04, -1.42391887e-04, -7.04218692e-05,
          -8.66261780e-06, 1.10226201e-05, 1.53276720e-04,
          2.76222097e-04, -3.00504453e-05, -2.58019252e-04,
          -4.22094774e-04, 6.18143167e-05, -2.45208157e-05,
          7.91270504e-05, 1.29697233e-04, 1.29535738e-05,
          -1.22600672e-04, -6.20295323e-05, -4.11905130e-05,
          -1.08473367e-04, -4.44628022e-05, 2.27257231e-04,
          -8.02405521e-06, -1.96796507e-04, -2.17723325e-04,
          -9.58262390e-05, 6.22647276e-05, -1.57833012e-04,
          -8.74856778e-05, -2.01189090e-04, 2.20766451e-05,
          -1.41627883e-04, -2.06050627e-05, -1.83256998e-04,
          1.36393777e-04, -6.46255721e-05, -6.52795934e-05,
          -7.58130773e-05, -1.08101478e-04, -5.48209027e-06,
          1.30242872e-04, -3.84000778e-05, 1.13418733e-04,
          2.23835232e-05, 5.90090931e-05, 6.51354567e-05, 1.09526598e-04,
          -9.36252909e-05, 1.61620701e-04, -6.46915350e-06,
          -2.26992168e-04, 2.66336981e-04, 1.36341012e-04,
          5.16820955e-06, -2.08647281e-04, -2.26562101e-04,
          -4.37330746e-05, -1.40173564e-04, 6.42651939e-05 ]
      - [ -5.71520999e-04, -2.61387177e-04, -1.07066146e-04,
          -1.85909608e-04, 3.22840584e-04, 5.03512507e-04,
          1.62362230e-05, -4.48102277e-04, -1.75833542e-04,
          4.54526395e-04, 1.19320888e-04, 5.41503483e-04, 4.67327773e-04,
          -6.46558692e-05, -2.16478409e-04, -2.92372948e-04,
          2.94267695e-04, 4.85110184e-04, 3.37561883e-04, 3.05637979e-04,
          -1.75099005e-04, -1.02403096e-03, -9.67216154e-04,
          -5.06931858e-04, -4.53971443e-04, 1.73417880e-04,
          5.96053142e-04, -5.33306638e-06, -4.70421946e-04,
          -8.63153138e-04, 2.61509762e-04, 2.91955948e-04,
          5.97202627e-04, 5.04382304e-04, 2.48535325e-05, 8.73504978e-05,
          5.12827282e-05, -9.40529790e-05, -1.86738944e-05,
          -2.35650266e-04, 2.40211288e-04, -1.44644466e-04,
          4.43728524e-04, 5.12513579e-05, 1.42284815e-04,
          -1.88609672e-04, 3.54641263e-04, 1.02789130e-03,
          -1.81564872e-04, 4.28497093e-04, -1.10522509e-04,
          -1.10056222e-04, 5.81050444e-05, -7.35596041e-05,
          5.65211405e-04, 6.07496127e-04, -4.04162274e-05,
          -5.09249821e-06, 1.55547561e-04, 5.50111814e-04,
          -2.33604864e-04, -5.29564044e-04, -6.30413066e-04,
          -5.26797085e-04 ]
      - [ -4.88596161e-05, -9.16626159e-05, -8.05623422e-05,
          -3.23877393e-05, 1.72260639e-04, 2.08049842e-05,
          1.10156310e-04, -3.17934318e-05, -1.79612107e-05,
          4.09479762e-05, -4.50575681e-05, 3.49669754e-05,
          -2.91705292e-05, 1.48861625e-04, 2.05174802e-04,
          -4.52348504e-05, 8.24985182e-05, 1.33597467e-04,
          -4.89711201e-05, -4.43907593e-05, -1.60697564e-05,
          -1.69763443e-04, -5.82387620e-05, -6.00778403e-05,
          4.53361754e-05, 6.02433247e-05, 1.22006182e-04,
          -4.91000646e-05, -1.62864031e-04, -6.97113937e-05,
          4.74708686e-05, 1.73110195e-04, 6.58094141e-05, 2.62772628e-05,
          -2.84879698e-05, 8.64041158e-06, 2.40708541e-05,
          1.45260556e-05, 3.89788074e-05, -3.57941753e-05,
          4.60643460e-05, -2.11259303e-05, 1.13943752e-04,
          -7.94222578e-05, -1.90697188e-04, -6.78520883e-06,
          -4.07775296e-05, 6.67114873e-05, -1.62627141e-04,
          3.81467976e-06, -1.53511501e-04, 7.40304531e-05,
          -2.22413055e-05, 2.19725262e-05, 1.19942604e-04,
          1.35624257e-04, -2.51283898e-04, -1.37616036e-04,
          1.51918677e-04, 2.74018064e-04, 7.22594414e-05, 3.18704806e-05,
          1.10846413e-04, -2.45558127e-04 ]
   uncompressed_sv_total: 605
   uncompressed_support_vectors:
      - [ 2.60218823e+03, 7.21219043e+03, 6.18288428e+03, 0., 0., 0., 0.,
          0., 0., 2.30299854e+03, 6.79346985e+02, 1.37742163e+03,
          5.71063965e+02, 1.45830920e+03, 0., 9.33809433e+01,
          3.11307593e+03, 1.97678192e+02, 0., 2.67540649e+02,
          2.36111719e+03, 1.00539948e+03, 9.31268066e+02, 3.80789795e+03,
          1.46849097e+03, 1.68344879e+02, 0., 0., 1.88607141e+03,
          7.21619629e+03, 2.70295557e+03, 1.71566992e+03, 0.,
          2.70118500e+02, 0., 1.68461792e+03, 1.68774585e+03,
          2.75887842e+03, 2.77099951e+03, 6.09668066e+03, 1.20493030e+03,
          6.24679138e+02, 1.99042444e+03, 9.15382690e+02, 1.47363306e+03,
          7.00021667e+02, 1.98083801e+03, 0., 1.33955298e+03,
          2.05791870e+03, 1.77621545e+03, 4.21868213e+03, 2.83637085e+02,
          0., 7.64607239e+02, 2.46022095e+03, 1.21991675e+03,
          3.51283472e+03, 5.57750342e+03, 2.42737598e+03, 2.05216699e+03,
          8.22921600e+01, 0., 1.24611743e+03 ]
      - [ 3.44029102e+03, 4.85622656e+03, 1.68395972e+03, 1.29355420e+03,
          0., 0., 0., 0., 1.57268225e+03, 6.17427612e+02, 2.09618698e+02,
          0., 0., 5.94810905e+01, 0., 3.67235718e+03, 3.79913306e+03,
          1.27279224e+01, 0., 1.56518356e+02, 0., 0., 6.10175354e+02,
          2.91362012e+03, 1.51819775e+03, 9.84885712e+01, 0., 0., 0.,
          3.21207300e+03, 4.27006201e+03, 5.29784229e+03, 1.29453711e+03,
          1.23223373e+02, 3.25419739e+02, 0., 4.08078955e+03,
          3.05368359e+03, 2.47542334e+03, 6.68389746e+03, 1.74937048e+03,
          1.02719153e+03, 7.94637512e+02, 0., 1.42072156e+03,
          4.05842346e+02, 8.23203491e+02, 1.10176233e+03, 3.00942285e+03,
          1.42888892e+03, 7.47753967e+02, 6.22047424e+02, 7.13122681e+02,
          4.30116272e+02, 0., 1.06817517e+03, 7.56548975e+03,
          6.68650293e+03, 1.73452490e+03, 1.54451929e+03, 2.01380957e+03,
          1.98116119e+02, 0., 1.67326343e+03 ]
      - [ 3.52248950e+03, 2.64755664e+03, 1.72311279e+03, 1.32792981e+03,
          0., 0., 0., 0., 6.22009644e+02, 2.66905298e+03, 1.59716382e+03,
          1.59380051e+02, 0., 0., 0., 0., 8.98684326e+02, 0.,
          8.47230759e+01, 0., 1.14590479e+03, 6.20994324e+02,
          1.12152454e+03, 2.35355347e+03, 8.75950562e+02, 0., 0., 0.,
          1.28073242e+03, 2.38106763e+03, 1.84268872e+03, 3.16501294e+03,
          1.61009323e+02, 0., 0., 0., 2.28764404e+03, 6.78517334e+02,
          4.05598291e+03, 2.57125635e+03, 2.21002258e+02, 0.,
          4.71076782e+02, 8.26834900e+02, 1.06075439e+02, 7.11163818e+02,
          2.29704712e+03, 1.70254272e+03, 1.02996057e+03, 8.97036682e+02,
          9.93579407e+01, 2.53791187e+03, 5.18396057e+02, 1.07935165e+02,
          4.66146126e+01, 1.77047485e+03, 1.98437561e+03, 2.89404810e+03,
          1.67783728e+03, 2.02299438e+03, 5.94053894e+02, 0.,
          1.69705620e+01, 2.71111987e+03 ]
      - [ 4.68235400e+03, 1.81902209e+03, 9.78828308e+02, 1.04331641e+03,
          0., 0., 0., 0., 5.07986963e+03, 7.79358704e+02, 0.,
          8.02246857e+01, 0., 0., 0., 1.28895349e+03, 1.44393127e+03,
          1.16661903e+02, 0., 0., 0., 7.53048462e+02, 1.30550342e+03,
          3.60386841e+03, 0., 0., 0., 0., 1.19843396e+03, 1.02941772e+03,
          3.21065576e+03, 3.47089941e+03, 1.27062329e+03, 0.,
          2.44584991e+02, 1.06011938e+03, 2.11026062e+02, 8.30128479e+02,
          1.62663806e+03, 3.37106250e+03, 1.12369519e+03, 6.40640564e+02,
          4.56004364e+02, 3.23554810e+02, 0., 2.02474686e+02,
          2.01134018e+02, 2.68695264e+03, 1.68914661e+03, 2.73634106e+03,
          6.33103455e+02, 1.46828967e+03, 4.90917511e+01, 0.,
          1.59524841e+01, 1.03375085e+03, 3.30119214e+03, 3.23114087e+03,
          1.96022424e+03, 1.58781689e+03, 0., 0., 4.63249397e+01, 0. ]
      - [ 4.29504248e+03, 4.47261621e+03, 3.31525024e+03, 1.43780786e+03,
          0., 0., 0., 3.90184570e+02, 3.31889917e+03, 2.89062500e+03,
          1.28994263e+03, 0., 0., 0., 2.67089966e+02, 1.91905441e+02,
          2.48071997e+03, 7.60263138e+01, 0., 0., 6.18852173e+02,
          2.21627271e+03, 1.45480334e+03, 1.61896875e+03, 2.95803564e+03,
          8.58020935e+01, 0., 0., 2.43930957e+03, 2.55467700e+03,
          4.38114355e+03, 2.05625000e+03, 6.42122986e+02, 5.48605469e+02,
          1.02756519e+03, 2.66937280e+03, 2.46662842e+03, 1.27959375e+03,
          3.65872656e+03, 2.93844312e+03, 4.40857269e+02, 1.56034424e+03,
          0., 1.66529272e+03, 7.75743469e+02, 1.50970239e+03,
          2.75215869e+03, 4.27310181e+02, 6.52701416e+02, 0.,
          1.31410645e+03, 1.96489551e+03, 1.50082837e+03, 1.44222050e+01,
          1.64158032e+03, 2.35606445e+03, 2.47025049e+03, 2.11984229e+03,
          1.99035120e+03, 3.03276636e+03, 1.51453711e+03, 7.21803284e+01,
          1.52974121e+03, 3.42768774e+03 ]
      - [ 3.81238037e+03, 2.02568201e+03, 1.09768787e+03, 2.57090039e+03,
          2.73216626e+03, 2.01955444e+02, 0., 0., 1.80932568e+03,
          1.64052844e+03, 2.06179932e+03, 1.12119934e+03, 2.08254932e+03,
          0., 3.72615997e+02, 1.89016846e+02, 1.84708301e+03,
          5.88634968e+00, 1.12294258e+02, 4.52769241e+01, 2.58933691e+03,
          1.13595398e+03, 2.43457080e+03, 2.77874048e+03, 0.,
          1.41421354e+00, 0., 3.60555115e+01, 3.38873535e+03,
          2.55242334e+03, 2.14448877e+03, 2.64861182e+03, 2.56632019e+02,
          0., 1.95473785e+02, 2.81674707e+03, 2.39364526e+03,
          8.61667175e+02, 2.48509717e+03, 3.45997974e+03, 4.24949432e+02,
          8.71613464e+02, 7.32035400e+02, 9.53510010e+02, 1.08671643e+03,
          2.01447876e+03, 1.58782629e+03, 1.92862378e+03, 3.25308496e+03,
          1.75775940e+03, 2.35144287e+03, 1.74473157e+03, 1.25858105e+03,
          0., 0., 7.14725769e+02, 3.24815112e+03, 3.60346899e+03,
          2.03389478e+03, 4.33416992e+03, 8., 0., 0., 0. ]
      - [ 1.12320386e+03, 3.27596045e+03, 1.63126855e+03, 1.73109399e+03,
          1.69829211e+03, 0., 0., 0., 0., 3.03001758e+03, 3.62505188e+02,
          1.18785718e+03, 2.08086517e+02, 6.79615356e+02, 4.64605194e+02,
          0., 0., 1.30084579e+02, 1.96796738e+02, 1.33600781e+03,
          5.33158508e+02, 7.03045105e+02, 1.29577893e+03, 6.34717285e+02,
          1.21174756e+03, 0., 0., 0., 2.99503247e+03, 1.89495667e+03,
          1.83298560e+03, 2.03882410e+03, 0., 0., 8.45340118e+01,
          7.18401123e+02, 3.06025391e+03, 3.29042114e+03, 1.42427673e+03,
          1.09900317e+03, 0., 3.33829620e+02, 8.44757202e+02,
          5.76003479e+02, 6.59146423e+02, 2.63511768e+03, 1.52288904e+03,
          0., 1.17836633e+03, 7.65398926e+02, 1.36992651e+03,
          2.77688354e+03, 4.29287628e+02, 0., 0., 0., 1.52979639e+03,
          1.43516394e+03, 3.50140039e+03, 3.32285400e+03, 38., 0.,
          1.02459755e+02, 0. ]
      - [ 3.43305249e+03, 9.71899414e+03, 1.84234924e+03, 0., 0., 0., 0.,
          0., 8.76641296e+02, 4.75049805e+03, 8.46178406e+02, 0.,
          1.54019470e+02, 0., 0., 6.16116867e+01, 9.79177551e+02, 0., 0.,
          0., 1.49272803e+03, 6.70903870e+02, 1.24009900e+03,
          2.57036523e+03, 2.74830005e+03, 5.94251099e+02, 0.,
          1.73297424e+02, 3.11496411e+03, 1.67309375e+03, 2.66152832e+03,
          5.96006689e+03, 0., 0., 0., 1.65399597e+03, 8.92265320e+02,
          3.94901001e+03, 3.56126831e+03, 2.57123413e+03, 2.21318091e+03,
          7.07106781e+00, 4.06822021e+02, 1.44053137e+03, 6.73832336e+02,
          2.05566650e+03, 1.57174927e+03, 1.21018152e+03, 1.65043860e+03,
          2.66054785e+03, 2.21889355e+03, 2.26394653e+03, 0., 0., 0.,
          5.33666573e+01, 3.91141479e+03, 4.77275244e+03, 2.38134839e+03,
          3.23677441e+03, 0., 0., 0., 6.60110413e+02 ]
      - [ 5.31037158e+03, 2.25773706e+03, 5.04980273e+03, 4.81814746e+03,
          8.28613281e+01, 0., 4.60651703e+01, 0., 8.93985474e+02,
          1.41741602e+03, 2.89780884e+03, 2.22804840e+02, 9.24592224e+02,
          0., 1.04383105e+03, 0., 2.83789404e+03, 5.65685415e+00, 0., 0.,
          2.56456635e+02, 4.99484961e+03, 1.34836865e+03, 3.31210010e+03,
          5.24169800e+02, 0., 0., 8.02261169e+02, 5.14761230e+03,
          4.64787695e+03, 4.67083545e+03, 2.60180347e+03, 9.81053467e+02,
          1.60216577e+03, 3.11623218e+03, 3.82452490e+03, 3.05757422e+03,
          2.36966333e+03, 2.98012280e+03, 2.63882153e+03, 3.70223535e+03,
          1.77641284e+03, 2.03604956e+03, 2.31677783e+03, 3.92794214e+03,
          1.92421402e+02, 0., 0., 5.30827295e+03, 1.57651099e+03,
          1.64550513e+03, 2.03783545e+03, 3.61496558e+03, 3.62215424e+02,
          2.96984844e+01, 1.91637268e+03, 3.74452490e+03, 6.45741992e+03,
          2.88044897e+03, 5.02152100e+03, 2.70625928e+03, 0., 0.,
          3.10177368e+02 ]
      - [ 2.35539331e+03, 6.05690039e+03, 4.72966504e+03, 0., 0., 0., 0.,
          0., 2.00117883e+03, 1.23170667e+03, 2.01298535e+03, 0., 0.,
          2.16633331e+02, 0., 0., 2.06769604e+03, 4.24264069e+01,
          1.17200676e+02, 2.27284033e+03, 8.76524902e+02, 5.35111206e+02,
          2.22733032e+02, 6.72180054e+02, 2.98382544e+03, 1.10230286e+03,
          3.49322205e+02, 3.09987549e+02, 2.56565747e+03, 2.69406299e+03,
          3.54217847e+03, 2.36082593e+03, 0., 5.34197144e+02,
          1.58425305e+03, 1.81700403e+03, 8.22709534e+02, 1.43035059e+03,
          2.36564941e+03, 4.24912549e+03, 1.09526221e+03, 1.25376099e+03,
          1.73791418e+03, 1.62200928e+03, 8.09499817e+02, 4.30376556e+02,
          5.21376343e+02, 1.90055444e+03, 2.18527173e+03, 1.54336133e+03,
          2.94522803e+03, 3.05633130e+03, 0., 0., 5.97467163e+02,
          1.75002466e+03, 1.63624597e+03, 3.51008374e+03, 4.37562500e+03,
          4.05577563e+03, 0., 0., 0., 0. ]
      - [ 3.46501367e+03, 1.34595935e+03, 6.60979443e+03, 1.70598438e+03,
          0., 0., 0., 1.12285347e+02, 1.52391113e+03, 1.74248218e+03,
          2.58743945e+03, 0., 0., 0., 0., 0., 2.43847119e+03,
          1.34648718e+03, 0., 0., 0., 0., 2.35083817e+02, 1.44566370e+03,
          3.84410522e+03, 1.40505298e+03, 2.33581079e+03, 4.20469971e+02,
          6.77446167e+02, 7.30564697e+02, 1.72392188e+03, 2.62379443e+03,
          6., 0., 0., 1.78088745e+03, 3.47592578e+03, 1.86615100e+03,
          3.87262012e+03, 1.38565894e+03, 2.26221130e+02, 3.79230804e+02,
          2.18549759e+02, 2.48892358e+03, 2.58320557e+03, 8.99975830e+02,
          6.05607117e+02, 1.40712146e+03, 9.86928955e+02, 4.63864160e+03,
          2.69183899e+02, 0., 0., 0., 3.00946808e+02, 2.19440283e+03,
          2.07789209e+03, 2.01601892e+03, 2.65046582e+03, 1.13207776e+03,
          3.84783051e+02, 7.44324158e+02, 8.30753418e+02, 1.94485461e+03 ]
      - [ 2.58622827e+03, 1.35120386e+03, 3.68913965e+03, 1.11890308e+03,
          0., 0., 0., 0., 2.82446472e+02, 0., 3.07626404e+02,
          1.37295303e+02, 6.84527283e+02, 4.42307434e+02, 1.45247168e+03,
          2.30653418e+03, 8.79915137e+03, 1.76669052e+02, 0., 0.,
          6.99968567e+02, 0., 1.05989844e+03, 0., 5.57957275e+03, 0., 0.,
          1.71365625e+03, 1.41318408e+03, 1.07879602e+03, 7.99543884e+02,
          1.19863708e+03, 1.01580615e+03, 0., 0., 1.78393396e+03,
          1.86694971e+03, 1.09927124e+03, 4.77416748e+03, 2.53219238e+03,
          2.25883569e+03, 3.21422876e+03, 4.95889099e+02, 0.,
          7.43462646e+02, 3.84096344e+02, 4.37383728e+02, 1.47025793e+03,
          1.80353491e+03, 2.66313525e+03, 3.79987329e+03, 0.,
          3.33766403e+01, 9.48261566e+01, 2.60863953e+02, 1.99819263e+03,
          5.93210840e+03, 4.08822363e+03, 1.83892432e+03, 2.77923804e+03,
          4.79416290e+02, 0., 6.00333252e+01, 1.50484277e+03 ]
      - [ 3.13355542e+03, 2.55960645e+03, 3.75615387e+02, 1.16332800e+03,
          0., 0., 0., 0., 2.63604932e+03, 1.25607861e+03, 3.32929413e+02,
          0., 0., 0., 0., 1.01805762e+03, 1.43523975e+03, 3.20315460e+02,
          0., 0., 6.81916443e+02, 9.14049255e+02, 0., 1.29038574e+03,
          1.15993591e+03, 0., 0., 8.54400406e+01, 1.34116187e+03,
          7.75074707e+02, 1.72128711e+03, 2.27699561e+03, 1.03997876e+03,
          0., 3.49284973e+01, 0., 6.54987488e+02, 1.82396387e+03,
          1.72797522e+03, 2.21488965e+03, 6.56002991e+02, 3.00734985e+02,
          4.87165283e+02, 3.78208923e+02, 0., 0., 1.23583887e+03,
          1.07522668e+03, 1.50374243e+03, 2.73467383e+03, 6.13098694e+02,
          5.33810852e+02, 0., 0., 5.65685415e+00, 0., 3.66898584e+03,
          2.87221899e+03, 1.77661060e+03, 7.38075867e+02, 0., 0., 0., 0. ]
      - [ 5.62380078e+03, 4.81929004e+03, 7.29729297e+03, 2.47687939e+03,
          0., 0., 0., 1.84390888e+01, 4.81040535e+01, 1.32151868e+03,
          3.08249048e+03, 1.46750012e+03, 2., 0., 0., 0., 1.87539771e+03,
          0., 0., 2.01606409e+03, 1.21321484e+03, 1.78705359e+03,
          8.97587891e+02, 5.49102905e+02, 1.51494507e+03, 5.67367249e+02,
          1.35951096e+02, 8.65555298e+02, 3.76859985e+03, 2.57482813e+03,
          8.39589648e+03, 3.40444263e+03, 1.47336633e+03, 3.85253174e+02,
          7.92315613e+02, 6.77043701e+02, 2.81813574e+03, 2.48377002e+03,
          3.02623022e+03, 8.64674121e+03, 1.78996460e+03, 3.50087982e+02,
          1.35379517e+03, 1.77627893e+03, 0., 0., 1.51856372e+03,
          2.17968311e+03, 0., 3.11306177e+03, 2.39759473e+03,
          1.98788354e+03, 0., 0., 1.03391708e+02, 1.87424097e+03,
          8.57054980e+03, 1.27754846e+03, 1.61830554e+03, 7.21474268e+03,
          3.04146301e+02, 0., 0., 0. ]
      - [ 6.39044385e+03, 3.97740796e+03, 1.35033643e+03, 9.55931335e+02,
          7.91854797e+02, 1.46037122e+03, 0., 1.30297925e+03,
          8.05358838e+03, 0., 0., 0., 0., 0., 0., 4.00510895e+02,
          6.99611084e+02, 9.89949512e+00, 0., 1.71221826e+03,
          3.34293274e+02, 7.89227478e+02, 0., 4.64128857e+03,
          6.16116882e+02, 0., 0., 0., 1.93724866e+03, 3.96784082e+03,
          4.16474854e+03, 4.67993750e+03, 3.37116919e+03, 4.18502075e+02,
          1.25286365e+03, 3.26459808e+02, 1.17809631e+03, 2.32770166e+03,
          2.26890894e+03, 2.65225098e+03, 3.25916406e+03, 5.82897461e+02,
          2.69072475e+01, 0., 0., 0., 1.88714575e+03, 2.80113403e+03,
          1.43763184e+03, 2.85738159e+03, 3.81971704e+03, 0., 0.,
          3.36154709e+01, 0., 0., 5.33700732e+03, 4.15232813e+03,
          3.37674072e+03, 3.84062573e+03, 0., 0., 0., 0. ]
      - [ 3.67045605e+03, 4.67382422e+03, 8.02428223e+03, 1.86711877e+03,
          0., 0., 0., 1.57835358e+02, 1.48690332e+03, 1.70777637e+03,
          4.73488428e+03, 0., 0., 0., 0., 0., 1.85731213e+03,
          1.62413055e+02, 0., 0., 1.77694727e+03, 3.51909839e+03,
          1.81058850e+03, 0., 0., 0., 0., 0., 4.08947388e+03,
          4.72333887e+03, 6.23403906e+03, 1.81273389e+03, 1.85769409e+03,
          7.07517639e+02, 4.71425507e+02, 8.46275391e+02, 1.49673291e+03,
          3.30912769e+03, 5.58001025e+03, 5.24218359e+03, 1.37246191e+03,
          1.56800586e+03, 1.32341626e+03, 3.80087891e+02, 0.,
          6.45479309e+02, 3.06992847e+03, 2.94976001e+03, 0.,
          3.26525586e+03, 1.34389722e+03, 3.08949487e+03, 4.06276123e+03,
          8.98109131e+01, 1.13137083e+01, 4.59009796e+02, 4.02762866e+03,
          4.62116357e+03, 3.61208325e+03, 8.10194336e+03, 9.10584183e+01,
          0., 0., 0. ]
      - [ 5.35132275e+03, 9.19706055e+03, 1.40902856e+03, 6.48063843e+02,
          0., 1.20830460e+01, 0., 0., 0., 2.37928574e+02, 9.20977707e+01,
          0., 10., 0., 0., 0., 4.60342773e+03, 1.47648230e+01, 0., 0.,
          2.70682343e+02, 5.68330566e+02, 0., 2.37507904e+02,
          5.16480408e+02, 7.71109192e+02, 1.21655243e+02, 0.,
          2.03135229e+03, 6.25239551e+03, 2.77466772e+03, 3.31120361e+03,
          0., 0., 0., 0., 2.05294580e+03, 1.48939038e+03, 8.14340088e+03,
          5.40489746e+03, 1.72908264e+02, 5.93976501e+02, 2.44806046e+02,
          0., 8.73791748e+02, 0., 3.80573242e+02, 0., 0., 5.34222778e+02,
          1.50416980e+03, 8.02653870e+02, 0., 0., 5.67133789e+02,
          2.91171973e+03, 4.52472412e+03, 3.09085718e+03, 5.92629102e+03,
          3.57244458e+03, 0., 0., 3.71534821e+02, 6.43000732e+02 ]
      - [ 2.77398096e+03, 3.86420215e+03, 3.91983887e+03, 4.01834644e+03,
          0., 0., 0., 0., 0., 2.22483301e+03, 1.59450562e+03,
          1.47863257e+03, 0., 0., 2.82842708e+00, 0., 1.27002673e+03,
          8.42721024e+01, 1.96621475e+02, 1.47863843e+03, 9.31996826e+02,
          1.11818579e+03, 8.35418457e+02, 2.65198029e+02, 3.16094116e+03,
          5.15321228e+02, 8.40595093e+01, 0., 4.35784326e+03,
          3.32785254e+03, 1.93966785e+03, 4.08645117e+03, 2.01717621e+02,
          0., 1.87378723e+03, 1.01843591e+03, 1.35095764e+03,
          2.57638159e+03, 1.30037585e+03, 7.23319971e+03, 3.16950775e+02,
          1.08452751e+02, 0., 0., 6.09066528e+02, 1.21575610e+03,
          1.35126758e+03, 9.19535706e+02, 1.31569543e+03, 1.32732007e+03,
          2.19569263e+03, 0., 0., 0., 9.92208633e+01, 4.74908691e+03,
          2.03759985e+03, 2.78628198e+03, 2.52441528e+03, 4.05769141e+03,
          7.07106781e+00, 0., 0., 2.36896533e+03 ]
      - [ 6.08152954e+02, 2.84871436e+03, 8.12324658e+03, 3.32903491e+03,
          0., 0., 0., 0., 1.56894867e+02, 1.10992297e+03, 1.14377283e+03,
          2.00132599e+02, 0., 0., 1.49702319e+03, 2.79969434e+03,
          3.98616577e+03, 5.07740097e+01, 0., 3.27074921e+02,
          2.56511548e+03, 1.28225415e+03, 8.84182068e+02, 2.85236755e+02,
          1.89644873e+03, 4.46285449e+03, 0., 0., 3.80053516e+03,
          6.23190625e+03, 2.13124341e+03, 4.01195508e+03, 0.,
          4.95782204e+01, 0., 2.01797266e+03, 3.24781689e+03,
          5.57550293e+03, 4.11017139e+03, 1.97124976e+03, 3.10883594e+03,
          1.12357739e+03, 0., 0., 8.52976135e+02, 1.46314978e+03,
          5.91797974e+02, 3.23109894e+01, 2.23793164e+03, 2.05280957e+03,
          8.33576660e+02, 1.97788135e+03, 1.85326736e+02, 0.,
          1.98010101e+02, 3.89574146e+03, 2.98551416e+03, 4.95120459e+03,
          5.26410693e+03, 2.72662891e+03, 1.92031689e+03, 1.07095435e+03,
          1.00790234e+03, 1.97524988e+03 ]
      - [ 2.68400146e+03, 6.25797119e+03, 5.95778711e+03, 1.87146570e+03,
          0., 0., 0., 0., 1.83790967e+03, 2.96295776e+03, 2.29962451e+03,
          2.05197693e+02, 0., 9.54148865e+01, 0., 0., 3.59765320e+02, 0.,
          0., 1.67142505e+03, 1.89539197e+03, 9.35479553e+02,
          8.04061646e+02, 7.53160034e+02, 2.26668799e+03, 1.31603223e+03,
          0., 0., 5.10508984e+03, 2.22455249e+03, 4.26520752e+03,
          4.65339551e+03, 1.39769800e+03, 0., 1.16517151e+03, 0.,
          6.03072607e+03, 4.19731396e+03, 7.49040100e+02, 2.16072583e+03,
          3.78470361e+03, 7.60452515e+02, 3.34212494e+02, 2.58622974e+03,
          8.12009888e+02, 6.09777039e+02, 1.04293042e+03, 2.15365161e+03,
          2.69907422e+03, 1.29926794e+03, 1.28134851e+03, 7.95181763e+02,
          2.01178027e+03, 2.68923767e+02, 1.39489014e+03, 1.45062256e+03,
          1.82370667e+03, 4.88381104e+03, 2.82563696e+03, 3.77193994e+03,
          1.82544299e+03, 0., 2.51765762e+02, 1.50436084e+03 ]
      - [ 4.89146338e+03, 4.03950122e+03, 1.44277661e+03, 9.28040588e+02,
          0., 0., 0., 0., 0., 4.39829498e+02, 0., 0., 0., 0.,
          1.94270325e+02, 3.76107764e+03, 2.27430566e+03, 1.10923393e+02,
          0., 0., 3.05368622e+02, 1.16516090e+02, 3.30151489e+02,
          1.13712512e+03, 6.88600037e+02, 2.34546371e+02, 0.,
          1.41795624e+02, 1.74993689e+03, 1.64775903e+03, 1.04091895e+03,
          7.90650391e+03, 0., 0., 0., 6.89492569e+01, 9.12134277e+02,
          1.48146997e+03, 1.95227905e+03, 1.04648057e+04, 4.66921173e+02,
          0., 0., 0., 2.65699066e+02, 6.67216797e+02, 0., 0.,
          1.40481274e+03, 3.58022339e+02, 3.12166626e+02, 3.56252716e+02,
          0., 0., 2.23738129e+02, 5.32850488e+03, 5.16102734e+03,
          1.45039941e+03, 1.36056860e+03, 2.44711670e+03, 90., 0.,
          4.19447266e+02, 4.29516022e+02 ]
      - [ 5.28478333e+02, 7.20924707e+03, 5.59131104e+03, 1.88724084e+03,
          1.08178601e+03, 7.80371704e+02, 1.97989902e+01, 0., 0.,
          4.40986475e+03, 2.27022559e+03, 0., 0., 0., 0., 0.,
          1.98822388e+03, 1.41421354e+00, 0., 2.18309399e+03,
          9.94361084e+02, 1.23005920e+03, 1.56775952e+03, 0.,
          2.04051587e+03, 2.28958276e+03, 9.63327637e+01, 0.,
          3.76520020e+03, 6.20292041e+03, 4.13361768e+03, 1.56554163e+03,
          1.81924316e+03, 9.97400391e+02, 1.63700916e+03, 1.42535474e+03,
          1.28715955e+03, 1.77383923e+03, 2.98453809e+03, 7.33081592e+03,
          12., 0., 1.54021497e+03, 5.94810867e+01, 1.05990570e+02,
          7.58221558e+02, 2.78004980e+03, 9.04682251e+02, 3.64601636e+03,
          2.07463916e+03, 1.56543994e+03, 1.42901270e+03, 0., 0.,
          2.88444099e+01, 3.53067139e+03, 1.94711206e+03, 6.12435547e+03,
          1.57476978e+03, 2.84270361e+03, 2.86621729e+03, 0., 0.,
          3.80189423e+02 ]
      - [ 3.16330127e+03, 2.12491333e+03, 1.54364575e+03, 3.58718433e+03,
          1.81520691e+03, 0., 0., 0., 2.52352832e+03, 1.66527466e+03,
          1.21061023e+03, 1.22055920e+03, 1.84750513e+03, 0.,
          5.58883545e+02, 3.43284326e+03, 2.35015991e+03, 9.59012512e+02,
          4.77428528e+02, 2.23036108e+03, 2.91628369e+03, 2.27654858e+03,
          8.67286560e+02, 7.55584106e+02, 5.81520203e+02, 5.85853210e+02,
          3.89307068e+02, 0., 7.32340674e+03, 1.98856409e+03,
          2.24215942e+03, 9.82549316e+02, 1.77494360e+03, 0., 0., 0.,
          4.02959058e+03, 3.75414893e+03, 6.89263428e+03, 1.81139099e+03,
          1.73171094e+03, 1.41421354e+00, 0., 0., 1.75692847e+03,
          3.04398218e+03, 1.49746484e+03, 1.78626123e+03, 2.41788477e+03,
          1.60695789e+03, 2.64728540e+03, 1.49186353e+03, 0., 0., 0.,
          6.80294037e+01, 7.25450049e+03, 3.30576855e+03, 2.73262646e+03,
          5.48971631e+03, 0., 0., 0., 2.63383862e+03 ]
      - [ 4.94986621e+03, 4.07131616e+03, 4.41386182e+03, 0., 0., 0., 0.,
          0., 4.37064941e+03, 7.84966980e+02, 0., 0., 0., 0., 0.,
          4.88447113e+02, 1.57032666e+03, 0., 0., 0., 4.12326630e+02,
          8.22976318e+02, 1.40883643e+03, 1.47194836e+03, 1.54044519e+03,
          0., 0., 4.55411911e+01, 6.83520279e+01, 3.17457861e+03,
          5.31096289e+03, 3.94741113e+03, 1.30777881e+03, 0.,
          3.71712280e+02, 1.60112085e+03, 1.60137952e+03, 1.81076367e+03,
          2.33455933e+03, 4.69890723e+03, 2.98141992e+03, 3.54066772e+02,
          4.76030945e+02, 6.31585327e+02, 9.37837524e+02, 0.,
          1.16775403e+03, 2.02518237e+03, 2.66162256e+03, 1.15304382e+03,
          1.11001465e+03, 1.11824280e+03, 4.73026428e+02, 0.,
          8.72353134e+01, 1.67191602e+03, 6.98437988e+03, 1.67822546e+03,
          1.85012085e+03, 1.65147986e+03, 2.03954138e+03, 0., 0., 0. ]
      - [ 5.18949890e+02, 1.36734775e+04, 1.75816101e+03, 1.88135840e+03,
          0., 0., 0., 0., 0., 5.17751025e+03, 1.47512903e+03, 0., 0.,
          4.91934929e+01, 40., 0., 4.73316699e+03, 9.07854614e+01, 0.,
          0., 3.40948340e+03, 2.46491553e+03, 8.72378357e+02,
          6.62398315e+02, 2.36552588e+03, 3.18077661e+03, 0., 0.,
          5.27632031e+03, 3.95603027e+03, 3.12680103e+03, 2.39204736e+03,
          0., 0., 0., 0., 1.87357324e+03, 1.72297009e+03, 1.41963105e+04,
          0., 0., 0., 6.40312424e+01, 1.90201855e+03, 4.86620979e+01,
          1.44737073e+03, 3.72776416e+03, 7.94241760e+02, 4.99315521e+02,
          1.26258215e+03, 9.19374023e+02, 2.92189063e+03, 1.82042419e+03,
          0., 2.97778198e+02, 4.89719287e+03, 2.23409155e+03,
          3.10817480e+03, 2.35156421e+03, 6.85200977e+03, 0., 0.,
          6.23883324e+01, 5.62926611e+03 ]
      - [ 2.77140137e+03, 1.85507532e+03, 4.01000586e+03, 3.17239648e+03,
          1.62684338e+03, 0., 0., 0., 1.34164160e+03, 1.74230750e+03,
          1.52733936e+03, 2.03168176e+03, 7.74765015e+02, 8.03853210e+02,
          4.42574249e+02, 0., 3.80188629e+02, 1.20663086e+02, 0.,
          1.62468579e+03, 2.99175464e+03, 1.57158655e+03, 7.36092407e+02,
          2.27101807e+03, 0., 1.13137083e+01, 9.46678391e+01,
          1.62355286e+03, 5.46049512e+03, 1.70791821e+03, 1.55842249e+03,
          4.16851465e+03, 0., 0., 0., 0., 5.10064600e+03, 7.93629150e+03,
          1.37137231e+03, 5.94516602e+02, 2.45589081e+02, 0., 0., 0.,
          4.29431934e+03, 4.02425977e+03, 0., 3.39106323e+02, 0.,
          7.06508301e+02, 9.96287842e+02, 6.23224316e+03, 0., 0., 0., 0.,
          1.66156030e+03, 1.81590247e+03, 5.50798340e+03, 6.10661084e+03,
          40., 0., 1.72286697e+02, 1.58566724e+03 ]
      - [ 2.25440210e+03, 6.37073779e+03, 2.69398682e+03, 7.47572083e+02,
          0., 0., 0., 0., 1.56484290e+03, 2.05807422e+03, 1.54212463e+03,
          5.56596802e+02, 6.66432251e+02, 4.41900940e+02, 2.31607422e+02,
          0., 2.99603857e+03, 4.21016045e+01, 0., 1.44416882e+03,
          1.91599866e+03, 6.80617371e+02, 8.47951172e+02, 1.76786499e+03,
          1.81485645e+03, 1.61919464e+02, 8.76584244e+01, 1.07761060e+03,
          2.02112671e+03, 2.97244019e+03, 1.82321887e+03, 1.65406494e+03,
          0., 1.85396866e+02, 0., 9.71428894e+02, 2.54760010e+03,
          3.92209570e+03, 2.12448633e+03, 3.20745850e+03, 5.09901953e+00,
          5.34138794e+02, 1.51114343e+03, 0., 1.15927002e+03,
          2.26839722e+03, 1.20959790e+03, 8.45659485e+02, 2.11596655e+03,
          2.01756775e+03, 2.78134473e+03, 7.04251343e+02, 22.,
          1.00767059e+02, 0., 1.27679260e+03, 2.78384595e+03,
          3.96681982e+03, 4.51672021e+03, 1.48544629e+03, 0., 0., 0.,
          1.29215503e+03 ]
      - [ 7.21985791e+03, 2.92919263e+03, 2.62391602e+03, 8.63366333e+02,
          3.78979028e+03, 7.99249649e+01, 0., 0., 2.19979272e+03,
          1.48137183e+03, 4.64754730e+02, 0., 2.70462329e+03,
          1.15923438e+03, 0., 0., 3.15254102e+03, 0., 0., 0.,
          2.49168433e+03, 1.11760486e+03, 3.28672241e+03, 1.69390906e+03,
          3.22823511e+03, 0., 0., 0., 5.40935059e+03, 2.83220410e+03,
          2.88874243e+03, 4.52571875e+03, 0., 0., 9.79489670e+01,
          4.51933643e+03, 1.83507129e+03, 4.44362012e+03, 3.90872705e+03,
          3.31537817e+03, 2.54933203e+03, 2.01216187e+03, 1.28053271e+03,
          6.08126648e+02, 7.43732483e+02, 3.43652954e+03, 2.05825122e+03,
          2.31472461e+03, 1.60382251e+03, 2.74643774e+03, 3.34004517e+03,
          5.20575684e+03, 6., 0., 0., 1.25306848e+03, 1.42938599e+03,
          5.42698096e+03, 4.78665088e+03, 7.00794385e+03, 380., 0.,
          7.07106781e+00, 1.62508496e+03 ]
      - [ 8.20673145e+03, 6.01085889e+03, 9.80135376e+02, 4.41454407e+02,
          28., 0., 1.97989902e+01, 2.48084656e+02, 2.67411328e+03, 0.,
          4.52769279e+01, 0., 0., 0., 0., 0., 5.68418506e+03, 0.,
          5.79827576e+01, 4.74341660e+01, 0., 8.47138916e+02,
          1.12814709e+03, 1.85175220e+03, 2.95579810e+03, 0., 0.,
          4.50234344e+02, 3.43767529e+03, 2.19761133e+03, 1.80810107e+03,
          3.72297827e+03, 1.66433167e+02, 0., 0., 0., 1.89884888e+03,
          2.65057568e+03, 6.97065283e+03, 3.76500171e+03, 1.81992712e+03,
          1.59004028e+03, 5.83000854e+02, 5.85431458e+02, 4.31335144e+02,
          2.33383804e+02, 2.12930786e+03, 2.13747217e+03, 3.15623999e+03,
          1.32717102e+03, 1.27542114e+03, 8.52502136e+02, 1.54380786e+03,
          0., 0., 2.65190796e+03, 7.32487207e+03, 5.52166077e+02,
          2.53217432e+03, 5.53279443e+03, 4.33001160e+02, 0., 0.,
          1.50588269e+03 ]
      - [ 3.96426050e+03, 7.76683838e+03, 0., 0., 0., 0., 0., 0.,
          1.02900842e+03, 0., 0., 0., 0., 0., 0., 2.21531036e+02,
          4.77738672e+03, 1.41421354e+00, 0., 0., 0., 1.47864294e+03,
          5.74421448e+02, 5.90716553e+02, 1.37889502e+03, 1.63487927e+03,
          8.87298523e+02, 0., 1.58037781e+03, 2.41992773e+03,
          1.98154260e+03, 2.92663110e+03, 0., 9.46446533e+02,
          1.56249634e+03, 0., 1.58897009e+03, 7.27377319e+02,
          5.69516943e+03, 3.09752026e+03, 3.52634790e+03, 7.76865417e+02,
          1.04708960e+03, 0., 0., 5.18808228e+02, 6.61508911e+02,
          4.27338287e+02, 1.35128955e+03, 1.62480371e+03, 0.,
          7.59876282e+02, 1.51750122e+03, 0., 3.72209564e+02,
          3.40801855e+03, 5.72612646e+03, 2.08514575e+03, 2.73817358e+03,
          2.41075586e+03, 1.59961450e+03, 1.60312195e+02, 6.33618164e+02,
          3.67144482e+03 ]
      - [ 2.02585608e+03, 5.11542285e+03, 4.11404980e+03, 1.96902710e+03,
          0., 2.06813919e+02, 1.53421606e+03, 1.78403613e+03,
          1.95576065e+02, 1.65023108e+03, 1.41187891e+03, 0., 0., 0., 0.,
          3.33723022e+03, 3.89777808e+03, 0., 0., 0., 8.00384949e+02,
          1.12030811e+03, 8.56851196e+02, 3.49675635e+03, 4.43935394e+02,
          3.90192017e+03, 0., 0., 1.70070093e+03, 4.91281055e+03,
          4.44004150e+03, 3.84091504e+03, 1.18693152e+03, 0., 0.,
          1.97470728e+03, 1.99982910e+03, 5.71647803e+03, 2.61833862e+03,
          5.53349463e+03, 4., 2.82842708e+00, 7.29859131e+02,
          3.42094019e+03, 9.52631104e+02, 1.06853149e+03, 0.,
          3.39522388e+03, 5.04888086e+03, 2.77909717e+03, 1.19887671e+03,
          8.31534668e+02, 1.86072473e+03, 0., 1.32378250e+02,
          1.21655245e+01, 7.09593896e+03, 6.61603711e+03, 2.50337964e+03,
          1.79759436e+03, 1.84770313e+03, 0., 0., 0. ]
      - [ 4.62720068e+03, 3.26977051e+03, 9.72773438e+02, 1.26813745e+03,
          1.58398239e+02, 0., 5.47424866e+02, 8.56002319e+02,
          3.57174756e+03, 4.85571838e+02, 0., 0., 0., 0., 7.21476257e+02,
          1.03365918e+03, 1.78389392e+03, 0., 0., 7.59605179e+01, 0., 0.,
          2.06694482e+03, 3.00230444e+03, 0., 0., 0., 0., 0.,
          3.18348706e+03, 3.89710791e+03, 3.18421631e+03, 0., 0., 0.,
          8.52877426e+01, 1.30451758e+03, 1.47154272e+03, 4.92865723e+03,
          4.59716211e+03, 4.14004822e+02, 7.72297241e+02, 4.84148712e+01,
          2.40333115e+02, 0., 9.18812805e+02, 1.77935889e+03,
          4.27992285e+03, 1.40519238e+03, 1.69720947e+03, 1.25606030e+03,
          4.38036530e+02, 1.42583154e+03, 3.82800201e+02, 4.41921387e+02,
          5.25441650e+02, 4.40042676e+03, 4.17535156e+03, 1.53492383e+03,
          1.21965759e+03, 1.88724841e+03, 0., 0., 8.73265259e+02 ]
      - [ 3.92655615e+03, 4.20081836e+03, 3.81544507e+03, 2.03376233e+03,
          2.98694604e+03, 8.71027893e+02, 0., 3.39320862e+02,
          7.31312500e+02, 8.57848450e+02, 1.74826465e+03, 5.59710889e+03,
          0., 0., 0., 0., 3.45935376e+03, 2.40416298e+01, 8.60232544e+00,
          0., 4.21664063e+03, 2.44073682e+03, 1.57488098e+03,
          1.64700879e+03, 1.70140442e+03, 4.60434570e+01, 0.,
          1.91579358e+03, 4.65457813e+03, 4.98239453e+03, 2.77135522e+03,
          1.81215479e+03, 0., 0., 0., 0., 7.31936914e+03, 5.58632422e+03,
          3.14748413e+03, 1.55762097e+03, 0., 0., 0., 1.70501831e+03,
          2.46203198e+03, 3.87963770e+03, 1.59615356e+03, 0.,
          1.58537256e+03, 6.58764282e+02, 9.05920532e+02, 6.78860107e+03,
          6.43062988e+02, 0., 0., 1.74714905e+03, 2.23906763e+03,
          1.25029907e+03, 6.88298242e+03, 7.10452295e+03, 1.76815353e+02,
          0., 1.69067291e+02, 1.70473523e+03 ]
      - [ 3.46541553e+03, 1.90719116e+03, 9.61836426e+03, 1.71381543e+03,
          0., 0., 0., 0., 0., 1.46259497e+03, 4.32310352e+03,
          2.65409253e+03, 0., 6.44980621e+01, 0., 0., 1.37038086e+03,
          1.65529461e+01, 7.07248154e+01, 0., 3.70579053e+03,
          1.81438354e+03, 1.77532910e+03, 7.71569092e+02, 2.44326025e+03,
          1.66076706e+02, 0., 0., 4.61784961e+03, 4.07141138e+03,
          3.15705786e+03, 3.35843530e+03, 2.89389008e+02, 9.23146820e+01,
          1.99529449e+02, 3.65221069e+03, 3.39705750e+02, 2.46905688e+03,
          9.51484277e+03, 1.74575183e+03, 0., 4.24734955e+01,
          3.15683411e+02, 1.68646899e+03, 2.36133740e+03, 2.22587012e+03,
          2.08222974e+03, 9.56280273e+02, 1.27013745e+03, 2.03953784e+03,
          3.00061450e+03, 3.22107983e+03, 0., 2.33238068e+01, 0.,
          9.48741882e+02, 4.06266406e+03, 4.87422510e+03, 3.23040039e+03,
          3.18756250e+03, 1.64277002e+03, 6.93108978e+01, 1.69705620e+01,
          1.77727148e+03 ]
      - [ 8.75854883e+03, 1.14001025e+03, 1.39977759e+03, 7.53330017e+02,
          1.66842737e+03, 2.76366211e+03, 1.27279224e+01, 3.05722076e+02,
          4.34767090e+03, 1.61946387e+03, 3.85319061e+02, 5.52342285e+02,
          0., 6.18820801e+02, 8.12916931e+02, 4.22733948e+02,
          1.86956128e+03, 0., 1.49833237e+02, 3.50801660e+03,
          9.35128845e+02, 5.05751068e+02, 6.71268738e+02, 8.67732727e+02,
          4.92358105e+03, 2.05138977e+02, 4.83321838e+01, 3.40960718e+03,
          1.74820410e+03, 4.96291357e+03, 1.38723254e+03, 4.78659424e+03,
          0., 5.95227905e+02, 1.42894012e+02, 4.72545850e+03,
          7.48501038e+02, 3.46973926e+03, 5.00781836e+03, 1.67439148e+03,
          0., 1.75413788e+02, 1.62833350e+03, 1.92380029e+03,
          1.03446973e+03, 1.61834766e+03, 7.33006165e+02, 2.51905273e+03,
          1.60750818e+03, 3.39187207e+03, 3.34195386e+03, 2.40303125e+03,
          0., 0., 0., 8.22192154e+01, 3.39418896e+03, 4.53399365e+03,
          6.67936914e+03, 3.63589331e+03, 0., 0., 0., 1.25195847e+02 ]
      - [ 2.33913770e+03, 4.55827295e+03, 4.76935547e+03, 4.21767529e+03,
          2.97919464e+02, 0., 0., 0., 0., 1.89171890e+02, 2.21468555e+03,
          2.87906543e+03, 4.45764526e+02, 0., 0., 2.82109924e+02,
          3.46655884e+03, 0., 0., 0., 1.68872998e+03, 5.18012354e+03,
          8.33809448e+02, 1.49692957e+03, 8.10061722e+01, 1.74097388e+03,
          5.20842407e+02, 0., 6.19323389e+03, 5.47543945e+03,
          2.58354492e+03, 8.34112488e+02, 0., 0., 0., 0., 5.63597412e+03,
          4.44133789e+03, 6.06858936e+03, 9.27190552e+02, 0., 0.,
          3.80829346e+02, 3.76391455e+03, 1.66616174e+03, 1.63416296e+03,
          2.12840479e+03, 2.74029205e+02, 2.29531348e+03, 1.09101233e+03,
          2.86304346e+03, 3.29751904e+03, 1.67437207e+03, 0.,
          3.95979805e+01, 3.78289990e+03, 1.79827295e+03, 4.68400928e+03,
          4.46352246e+03, 1.92145996e+03, 3.41961987e+03, 1.28763351e+02,
          1.95167175e+02, 1.79397058e+03 ]
      - [ 4.50829590e+03, 3.55316235e+03, 4.98620654e+03, 6.00818848e+03,
          0., 0., 0., 0., 9.25406921e+02, 2.23192432e+03, 1.92578650e+03,
          1.43561389e+03, 4.07237280e+03, 8.37671051e+01, 0.,
          7.13622375e+02, 5.19953857e+02, 2.82842708e+00, 4.47600830e+02,
          2.17504443e+03, 2.24835425e+03, 1.69697070e+03, 2.06269824e+03,
          8.51400879e+02, 2.15310693e+03, 0., 0., 1.97530469e+03,
          2.92689697e+03, 1.94438818e+03, 6.58295557e+03, 4.38505615e+03,
          1.48974915e+03, 0., 0., 0., 7.85865039e+03, 3.77371387e+03,
          3.11494849e+03, 5.33441162e+03, 0., 6.50538254e+01,
          6.85253601e+02, 5.62109668e+03, 2.54429346e+03, 1.18903992e+03,
          6.79332031e+02, 5.84754639e+02, 0., 3.67900098e+03,
          8.93376270e+03, 0., 12., 0., 0., 7.86729736e+02,
          2.74948145e+03, 8.17628857e+03, 6.14085400e+03, 3.36161084e+03,
          12., 0., 0., 0. ]
      - [ 1.75632825e+03, 6.09400293e+03, 2.25819434e+03, 6.27085889e+03,
          0., 0., 0., 0., 0., 0., 7.49348145e+02, 1.61207751e+03,
          8.54906250e+02, 1.73233948e+02, 8.54751434e+01, 0.,
          1.77556372e+03, 0., 2.82028381e+02, 3.71066040e+02,
          5.59676367e+03, 8.42117554e+02, 1.22773389e+03, 0.,
          8.28620544e+02, 1.90078381e+03, 3.95213867e+02, 3.65876025e+03,
          3.29869653e+03, 6.31875391e+03, 2.71125244e+03, 4.11278076e+03,
          0., 0., 1.91049728e+02, 3.99430981e+03, 2.12331055e+03,
          6.92694092e+03, 2.90939844e+03, 8.34659424e+02, 5.60121399e+02,
          1.60031250e+02, 2.39199365e+03, 5.75397754e+03, 1.63787695e+03,
          0., 5.72915344e+02, 0., 0., 3.15228198e+03, 3.87397314e+03,
          4.33606543e+03, 1.86709009e+03, 0., 0., 2.80122607e+03,
          1.64999780e+03, 3.11684546e+03, 5.05076611e+03, 9.11763770e+03,
          138., 0., 0., 8.03990021e+01 ]
      - [ 1.94950586e+03, 1.02489443e+04, 3.10124072e+03, 0., 0., 0., 0.,
          0., 0., 0., 1.55863147e+03, 1.61241125e+03, 0., 7.21110249e+00,
          0., 0., 1.74693884e+03, 0., 0., 2.37018997e+02, 1.73994324e+03,
          1.96160010e+03, 8.22776611e+02, 1.95342175e+03, 9.45576050e+02,
          1.87499792e+03, 2.17567285e+03, 2.61013397e+02, 3.40036670e+03,
          2.00195740e+03, 3.39692480e+03, 5.79996777e+03, 0., 0., 0.,
          2.05704419e+03, 2.88499573e+02, 4.71298291e+03, 8.63969238e+03,
          2.03335254e+03, 0., 0., 1.14017534e+01, 1.75722278e+03,
          3.17413647e+03, 7.36662720e+02, 0., 0., 3.72468597e+02,
          1.40344446e+03, 1.21142932e+03, 3.85277051e+03, 6.26514587e+02,
          0., 3.64769135e+02, 3.96464160e+03, 1.54101587e+03,
          2.73930444e+03, 5.10352930e+03, 3.56140088e+03, 3.20861359e+02,
          7.07277405e+02, 3.23333594e+03, 1.14695190e+03 ]
      - [ 6.43909729e+02, 8.63039648e+03, 1.22818555e+03, 1.41717163e+03,
          1.66026270e+03, 6.66483307e+01, 0., 0., 3.00745728e+02,
          7.93908081e+02, 0., 0., 1.27482898e+03, 2.04563452e+03,
          5.39646545e+02, 8.52768494e+02, 4.72056006e+03, 5.14678528e+02,
          0., 0., 5.48284546e+02, 8.96330322e+02, 6.99755676e+02,
          1.46170593e+03, 3.11978882e+03, 1.46445630e+03, 0., 0.,
          2.66916675e+03, 2.36402930e+03, 3.02073779e+03, 3.34938965e+03,
          7.32354187e+02, 0., 0., 0., 2.16453232e+02, 5.91010596e+03,
          5.27476367e+03, 4.13678467e+03, 0., 2.25334009e+03, 0.,
          1.43974561e+03, 2.70765594e+02, 0., 6.11138245e+02,
          2.55231836e+03, 2.37465479e+03, 2.19379175e+03, 2.58226685e+03,
          1.54624707e+03, 0., 0., 6.96186676e+01, 3.38506445e+03,
          2.48775928e+03, 6.64067334e+03, 2.65138135e+03, 4.40211084e+03,
          0., 1.49164337e+02, 0., 1.73972034e+03 ]
      - [ 7.88217468e+02, 7.27876563e+03, 4.67888428e+03, 4.13086572e+03,
          0., 0., 0., 0., 0., 1.64853027e+03, 1.50437097e+03,
          2.01473572e+03, 3.83617651e+03, 2.47693359e+02, 0., 0.,
          1.68241431e+03, 0., 0., 3.45430542e+03, 3.72351953e+03,
          8.41628235e+02, 4.45303284e+02, 1.04172935e+02, 1.45821069e+03,
          1.81722363e+03, 1.28062487e+01, 3.48552637e+03, 3.16970459e+03,
          4.00702295e+03, 1.89583118e+03, 2.97306104e+03, 0., 0., 0., 0.,
          3.57417188e+03, 7.55223389e+03, 3.12147266e+03, 2.31414111e+03,
          0., 2.45348740e+02, 1.40706226e+03, 2.43758936e+03,
          2.30294995e+03, 2.19491333e+03, 9.47421814e+02, 4.99417664e+02,
          1.71451978e+03, 1.62421204e+03, 2.83572949e+03, 4.84757373e+03,
          1.01662422e+02, 0., 0., 3.51936279e+03, 8.79346558e+02,
          1.46090564e+03, 3.78586084e+03, 8.37939453e+03, 10., 0.,
          2.82842708e+00, 0. ]
      - [ 5.36257422e+03, 3.22298975e+03, 5.19531006e+03, 2.52477979e+03,
          1.84354932e+03, 0., 8.94986038e+01, 0., 5.42440796e+02,
          4.85128809e+03, 6.10972412e+02, 1.74528223e+03, 1.76355811e+03,
          0., 0., 0., 0., 0., 0., 0., 5.98157129e+03, 9.07146057e+02,
          5.49068237e+02, 1.56343823e+03, 1.88037329e+03, 0., 0.,
          2.18446704e+03, 4.02793286e+03, 3.68635693e+03, 3.70049219e+03,
          4.68081396e+03, 1.59112646e+03, 0., 7.24706802e+01, 0.,
          6.53050293e+03, 5.85444141e+03, 2.53508838e+03, 1.49212378e+03,
          1.61208594e+03, 0., 0., 7.65375748e+01, 6.70905811e+03,
          2.11860596e+03, 7.34292847e+02, 0., 0., 3.36837695e+03,
          2.47579126e+03, 5.33389258e+03, 14., 0., 0., 2.94064606e+02,
          2.73523389e+03, 2.85281592e+03, 6.58503857e+03, 6.36099023e+03,
          14., 0., 0., 0. ]
      - [ 7.93880664e+03, 6.01113379e+03, 2.64233545e+03, 2.88092432e+03,
          0., 0., 0., 9.87381592e+02, 1.53866895e+03, 1.30782272e+02,
          1.06695862e+03, 1.07703300e+02, 6.00070801e+02, 0., 0.,
          5.01597443e+01, 2.04197583e+03, 5.83095169e+00, 0., 0., 0.,
          4.79597107e+02, 2.31532324e+03, 7.34829773e+02, 0., 0., 0.,
          2.02076099e+03, 1.74752380e+03, 3.33022729e+03, 6.64675244e+03,
          3.83753491e+03, 0., 0., 0., 6.32455540e+00, 3.68801929e+03,
          3.48082349e+03, 5.23180957e+03, 7.27361279e+03, 0., 0., 0., 0.,
          1.48251453e+03, 1.53884497e+03, 2.12742041e+03, 0.,
          9.05270142e+02, 6.52138000e+02, 8.44476685e+02, 7.91794128e+02,
          268., 1.94444897e+03, 3.47639557e+02, 2.14451367e+03,
          7.74488477e+03, 2.11450513e+03, 2.23274268e+03, 5.48970801e+03,
          2., 0., 0., 2.08206250e+03 ]
      - [ 3.39603198e+03, 2.22753735e+03, 3.84990356e+03, 3.12731128e+03,
          3.18230933e+03, 4.11526428e+02, 0., 0., 1.41763916e+03,
          3.57357361e+02, 2.60482788e+03, 4.22912891e+03, 0., 0., 0., 0.,
          5.43166016e+02, 1.41421354e+00, 0., 0., 3.46544775e+03,
          1.70508997e+03, 4.48291357e+03, 0., 0., 0., 0., 0.,
          5.23617627e+03, 3.91239331e+03, 3.14279297e+03, 4.75413867e+03,
          0., 0., 0., 2.26737732e+02, 9.90043652e+03, 1.93889978e+03,
          2.98998682e+03, 1.76518042e+03, 0., 0., 0., 0., 7.88469629e+03,
          8.78084595e+02, 9.15553406e+02, 5.08246582e+02, 8.68371277e+02,
          1.27789661e+03, 3.74857495e+03, 1.42255249e+03, 3.57651465e+03,
          0., 1.13137083e+01, 1.01202766e+02, 3.68270874e+03,
          1.57884937e+03, 5.90443555e+03, 6.48144873e+03, 88., 0.,
          3.78581123e+01, 8.27133179e+02 ]
      - [ 1.12108960e+03, 3.90028027e+03, 5.97889551e+03, 2.98628784e+03,
          9.12212891e+02, 0., 0., 0., 0., 1.20633850e+03, 2.03881067e+03,
          3.99584839e+03, 0., 0., 1.18152443e+02, 0., 1.29682214e+03, 0.,
          0., 1.68011902e+02, 3.99722852e+03, 1.79713477e+03,
          1.25443762e+03, 6.60928162e+02, 1.61370886e+03, 2.91952911e+02,
          0., 1.39283876e+01, 5.85040430e+03, 2.45187598e+03,
          4.33662500e+03, 2.20897754e+03, 0., 8.10061722e+01, 0., 0.,
          8.60936523e+03, 3.56673413e+03, 1.64424402e+03, 2.09906030e+03,
          0., 1.55563488e+01, 1.11400177e+02, 4.46814209e+03,
          2.74935229e+03, 1.56114307e+03, 5.53352356e+02, 8.31562378e+02,
          1.45301685e+03, 8.95399658e+02, 4.81154492e+03, 2.60858838e+03,
          1.61729480e+03, 0., 0., 1.48623804e+03, 1.64478296e+03,
          3.41212646e+03, 5.64561621e+03, 5.67454785e+03, 44., 0., 0.,
          0. ]
      - [ 4.30199805e+03, 2.45677295e+03, 1.41882056e+03, 1.71865125e+03,
